digraph Tree {
node [shape=box, style="filled, rounded", color="black", fontname=helvetica] ;
edge [fontname=helvetica] ;
0 [label="GENSTAT <= 3.5\ngini = 0.309\nsamples = 284306\nvalue = [8516693.245, 2013659.478]\nclass = False", fillcolor="#eb9f68"] ;
1 [label="VisMin <= 9.5\ngini = 0.448\nsamples = 150821\nvalue = [3692324.25, 1893598.219]\nclass = False", fillcolor="#f2c29f"] ;
0 -> 1 [labeldistance=2.5, labelangle=45, headlabel="True"] ;
2 [label="LOC_ST_RES <= 2.5\ngini = 0.387\nsamples = 93172\nvalue = [2545560.795, 905207.04]\nclass = False", fillcolor="#eeae7f"] ;
1 -> 2 ;
3 [label="IMMCAT5 <= 2.5\ngini = 0.484\nsamples = 20159\nvalue = [439779.818, 306850.784]\nclass = False", fillcolor="#f7d9c3"] ;
2 -> 3 ;
4 [label="PR <= 29.5\ngini = 0.496\nsamples = 5296\nvalue = [89262.433, 106889.083]\nclass = True", fillcolor="#deeffb"] ;
3 -> 4 ;
5 [label="DPGRSUM <= 3.5\ngini = 0.434\nsamples = 1321\nvalue = [33337.378, 15594.455]\nclass = False", fillcolor="#f1bc96"] ;
4 -> 5 ;
6 [label="(...)", fillcolor="#C0C0C0"] ;
5 -> 6 ;
13 [label="(...)", fillcolor="#C0C0C0"] ;
5 -> 13 ;
20 [label="AGEGRP <= 15.5\ngini = 0.471\nsamples = 3975\nvalue = [55925.055, 91294.627]\nclass = True", fillcolor="#b2d9f5"] ;
4 -> 20 ;
21 [label="(...)", fillcolor="#C0C0C0"] ;
20 -> 21 ;
28 [label="(...)", fillcolor="#C0C0C0"] ;
20 -> 28 ;
35 [label="DPGRSUM <= 3.5\ngini = 0.463\nsamples = 14863\nvalue = [350517.385, 199961.701]\nclass = False", fillcolor="#f4c9aa"] ;
3 -> 35 ;
36 [label="HHSIZE <= 1.5\ngini = 0.427\nsamples = 7164\nvalue = [183480.484, 81850.769]\nclass = False", fillcolor="#f1b991"] ;
35 -> 36 ;
37 [label="(...)", fillcolor="#C0C0C0"] ;
36 -> 37 ;
44 [label="(...)", fillcolor="#C0C0C0"] ;
36 -> 44 ;
51 [label="EFDecile <= 6.5\ngini = 0.485\nsamples = 7699\nvalue = [167036.902, 118110.932]\nclass = False", fillcolor="#f7dac5"] ;
35 -> 51 ;
52 [label="(...)", fillcolor="#C0C0C0"] ;
51 -> 52 ;
59 [label="(...)", fillcolor="#C0C0C0"] ;
51 -> 59 ;
66 [label="POB <= 18.5\ngini = 0.345\nsamples = 73013\nvalue = [2105780.977, 598356.256]\nclass = False", fillcolor="#eca571"] ;
2 -> 66 ;
67 [label="AGEGRP <= 3.5\ngini = 0.412\nsamples = 24377\nvalue = [641335.613, 261518.173]\nclass = False", fillcolor="#f0b48a"] ;
66 -> 67 ;
68 [label="Mob5 <= 7.5\ngini = 0.307\nsamples = 7703\nvalue = [231370.792, 53925.154]\nclass = False", fillcolor="#eb9e67"] ;
67 -> 68 ;
69 [label="(...)", fillcolor="#C0C0C0"] ;
68 -> 69 ;
76 [label="(...)", fillcolor="#C0C0C0"] ;
68 -> 76 ;
83 [label="POBM <= 2.5\ngini = 0.446\nsamples = 16674\nvalue = [409964.821, 207593.02]\nclass = False", fillcolor="#f2c19d"] ;
67 -> 83 ;
84 [label="(...)", fillcolor="#C0C0C0"] ;
83 -> 84 ;
91 [label="(...)", fillcolor="#C0C0C0"] ;
83 -> 91 ;
98 [label="VisMin <= 2.5\ngini = 0.304\nsamples = 48636\nvalue = [1464445.364, 336838.083]\nclass = False", fillcolor="#eb9e67"] ;
66 -> 98 ;
99 [label="MarStH <= 1.5\ngini = 0.255\nsamples = 30718\nvalue = [967329.294, 170368.465]\nclass = False", fillcolor="#ea975c"] ;
98 -> 99 ;
100 [label="(...)", fillcolor="#C0C0C0"] ;
99 -> 100 ;
107 [label="(...)", fillcolor="#C0C0C0"] ;
99 -> 107 ;
114 [label="VisMin <= 5.5\ngini = 0.376\nsamples = 17918\nvalue = [497116.071, 166469.618]\nclass = False", fillcolor="#eeab7b"] ;
98 -> 114 ;
115 [label="(...)", fillcolor="#C0C0C0"] ;
114 -> 115 ;
122 [label="(...)", fillcolor="#C0C0C0"] ;
114 -> 122 ;
129 [label="PR <= 29.5\ngini = 0.497\nsamples = 57649\nvalue = [1146763.454, 988391.179]\nclass = False", fillcolor="#fbeee4"] ;
1 -> 129 ;
130 [label="ETHDER <= 8.5\ngini = 0.391\nsamples = 17293\nvalue = [469579.17, 170983.946]\nclass = False", fillcolor="#eeaf81"] ;
129 -> 130 ;
131 [label="ABOID <= 1.5\ngini = 0.036\nsamples = 2771\nvalue = [100753.75, 1889.193]\nclass = False", fillcolor="#e5833d"] ;
130 -> 131 ;
132 [label="HCORENEED_IND <= 494.0\ngini = 0.5\nsamples = 12\nvalue = [222.249, 222.244]\nclass = False", fillcolor="#ffffff"] ;
131 -> 132 ;
133 [label="(...)", fillcolor="#C0C0C0"] ;
132 -> 133 ;
134 [label="(...)", fillcolor="#C0C0C0"] ;
132 -> 134 ;
137 [label="DPGRSUM <= 12.5\ngini = 0.032\nsamples = 2759\nvalue = [100531.5, 1666.949]\nclass = False", fillcolor="#e5833c"] ;
131 -> 137 ;
138 [label="(...)", fillcolor="#C0C0C0"] ;
137 -> 138 ;
145 [label="(...)", fillcolor="#C0C0C0"] ;
137 -> 145 ;
150 [label="ETHDER <= 26.5\ngini = 0.431\nsamples = 14522\nvalue = [368825.42, 169094.753]\nclass = False", fillcolor="#f1bb94"] ;
130 -> 150 ;
151 [label="LOC_ST_RES <= 2.5\ngini = 0.497\nsamples = 5751\nvalue = [115421.641, 97604.535]\nclass = False", fillcolor="#fbece0"] ;
150 -> 151 ;
152 [label="(...)", fillcolor="#C0C0C0"] ;
151 -> 152 ;
159 [label="(...)", fillcolor="#C0C0C0"] ;
151 -> 159 ;
166 [label="GENSTAT <= 2.5\ngini = 0.343\nsamples = 8771\nvalue = [253403.779, 71490.218]\nclass = False", fillcolor="#eca571"] ;
150 -> 166 ;
167 [label="(...)", fillcolor="#C0C0C0"] ;
166 -> 167 ;
174 [label="(...)", fillcolor="#C0C0C0"] ;
166 -> 174 ;
181 [label="IMMCAT5 <= 2.5\ngini = 0.496\nsamples = 40356\nvalue = [677184.284, 817407.233]\nclass = True", fillcolor="#ddeefb"] ;
129 -> 181 ;
182 [label="LSTWRK <= 3.5\ngini = 0.447\nsamples = 22186\nvalue = [277209.229, 544459.171]\nclass = True", fillcolor="#9ecff2"] ;
181 -> 182 ;
183 [label="POB <= 10.5\ngini = 0.406\nsamples = 18360\nvalue = [192844.787, 487128.297]\nclass = True", fillcolor="#87c4ef"] ;
182 -> 183 ;
184 [label="(...)", fillcolor="#C0C0C0"] ;
183 -> 184 ;
191 [label="(...)", fillcolor="#C0C0C0"] ;
183 -> 191 ;
198 [label="AGEGRP <= 2.5\ngini = 0.482\nsamples = 3826\nvalue = [84364.441, 57330.874]\nclass = False", fillcolor="#f7d7c0"] ;
182 -> 198 ;
199 [label="(...)", fillcolor="#C0C0C0"] ;
198 -> 199 ;
206 [label="(...)", fillcolor="#C0C0C0"] ;
198 -> 206 ;
213 [label="LOC_ST_RES <= 2.5\ngini = 0.482\nsamples = 18170\nvalue = [399975.056, 272948.062]\nclass = False", fillcolor="#f7d7c0"] ;
181 -> 213 ;
214 [label="HHSIZE <= 2.5\ngini = 0.496\nsamples = 4166\nvalue = [70032.987, 84255.37]\nclass = True", fillcolor="#deeefb"] ;
213 -> 214 ;
215 [label="(...)", fillcolor="#C0C0C0"] ;
214 -> 215 ;
222 [label="(...)", fillcolor="#C0C0C0"] ;
214 -> 222 ;
229 [label="POB <= 10.5\ngini = 0.463\nsamples = 14004\nvalue = [329942.069, 188692.692]\nclass = False", fillcolor="#f4c9aa"] ;
213 -> 229 ;
230 [label="(...)", fillcolor="#C0C0C0"] ;
229 -> 230 ;
237 [label="(...)", fillcolor="#C0C0C0"] ;
229 -> 237 ;
244 [label="PR <= 40.5\ngini = 0.047\nsamples = 133485\nvalue = [4824368.996, 120061.258]\nclass = False", fillcolor="#e6843e"] ;
0 -> 244 [labeldistance=2.5, labelangle=-45, headlabel="False"] ;
245 [label="BFNMEMB <= 0.5\ngini = 0.019\nsamples = 127091\nvalue = [4663552.738, 44113.816]\nclass = False", fillcolor="#e5823b"] ;
244 -> 245 ;
246 [label="PR <= 29.5\ngini = 0.013\nsamples = 125239\nvalue = [4608880.566, 30187.199]\nclass = False", fillcolor="#e5823a"] ;
245 -> 246 ;
247 [label="ETHDER <= 15.5\ngini = 0.007\nsamples = 116427\nvalue = [4296915.579, 15779.698]\nclass = False", fillcolor="#e5813a"] ;
246 -> 247 ;
248 [label="PR1 <= 10.5\ngini = 0.002\nsamples = 89104\nvalue = [3296776.308, 3815.278]\nclass = False", fillcolor="#e58139"] ;
247 -> 248 ;
249 [label="(...)", fillcolor="#C0C0C0"] ;
248 -> 249 ;
254 [label="(...)", fillcolor="#C0C0C0"] ;
248 -> 254 ;
261 [label="ETHDER <= 20.5\ngini = 0.023\nsamples = 27323\nvalue = [1000139.271, 11964.42]\nclass = False", fillcolor="#e5833b"] ;
247 -> 261 ;
262 [label="(...)", fillcolor="#C0C0C0"] ;
261 -> 262 ;
269 [label="(...)", fillcolor="#C0C0C0"] ;
261 -> 269 ;
276 [label="VisMin <= 10.5\ngini = 0.084\nsamples = 8812\nvalue = [311964.987, 14407.501]\nclass = False", fillcolor="#e68742"] ;
246 -> 276 ;
277 [label="DPGRSUM <= 12.5\ngini = 0.499\nsamples = 79\nvalue = [1407.417, 1518.528]\nclass = True", fillcolor="#f1f8fd"] ;
276 -> 277 ;
278 [label="(...)", fillcolor="#C0C0C0"] ;
277 -> 278 ;
285 [label="(...)", fillcolor="#C0C0C0"] ;
277 -> 285 ;
290 [label="ETHDER <= 47.5\ngini = 0.077\nsamples = 8733\nvalue = [310557.571, 12888.973]\nclass = False", fillcolor="#e68641"] ;
276 -> 290 ;
291 [label="(...)", fillcolor="#C0C0C0"] ;
290 -> 291 ;
298 [label="(...)", fillcolor="#C0C0C0"] ;
290 -> 298 ;
305 [label="PR <= 29.5\ngini = 0.324\nsamples = 1852\nvalue = [54672.172, 13926.617]\nclass = False", fillcolor="#eca16b"] ;
245 -> 305 ;
306 [label="PR <= 18.5\ngini = 0.207\nsamples = 1376\nvalue = [45005.442, 5963.603]\nclass = False", fillcolor="#e89253"] ;
305 -> 306 ;
307 [label="PR1 <= 11.0\ngini = 0.467\nsamples = 170\nvalue = [3963.405, 2333.531]\nclass = False", fillcolor="#f4cbae"] ;
306 -> 307 ;
308 [label="(...)", fillcolor="#C0C0C0"] ;
307 -> 308 ;
313 [label="(...)", fillcolor="#C0C0C0"] ;
307 -> 313 ;
320 [label="CMA <= 752.0\ngini = 0.149\nsamples = 1206\nvalue = [41042.038, 3630.072]\nclass = False", fillcolor="#e78c4b"] ;
306 -> 320 ;
321 [label="(...)", fillcolor="#C0C0C0"] ;
320 -> 321 ;
326 [label="(...)", fillcolor="#C0C0C0"] ;
320 -> 326 ;
333 [label="ETHDER <= 1.5\ngini = 0.495\nsamples = 476\nvalue = [9666.729, 7963.015]\nclass = False", fillcolor="#fae9dc"] ;
305 -> 333 ;
334 [label="REGIND <= 0.5\ngini = 0.497\nsamples = 364\nvalue = [6259.3, 7222.269]\nclass = True", fillcolor="#e5f2fc"] ;
333 -> 334 ;
335 [label="(...)", fillcolor="#C0C0C0"] ;
334 -> 335 ;
336 [label="(...)", fillcolor="#C0C0C0"] ;
334 -> 336 ;
343 [label="HCORENEED_IND <= 494.0\ngini = 0.293\nsamples = 112\nvalue = [3407.43, 740.746]\nclass = False", fillcolor="#eb9c64"] ;
333 -> 343 ;
344 [label="(...)", fillcolor="#C0C0C0"] ;
343 -> 344 ;
351 [label="(...)", fillcolor="#C0C0C0"] ;
343 -> 351 ;
354 [label="ABOID <= 1.5\ngini = 0.436\nsamples = 6394\nvalue = [160816.258, 75947.443]\nclass = False", fillcolor="#f1bd97"] ;
244 -> 354 ;
355 [label="LSTWRK <= 3.5\ngini = 0.5\nsamples = 1733\nvalue = [31808.884, 32364.21]\nclass = True", fillcolor="#fcfdff"] ;
354 -> 355 ;
356 [label="PR5 <= 53.5\ngini = 0.492\nsamples = 1164\nvalue = [18774.434, 24328.825]\nclass = True", fillcolor="#d2e9f9"] ;
355 -> 356 ;
357 [label="NOS <= 0.5\ngini = 0.499\nsamples = 955\nvalue = [16848.304, 18513.337]\nclass = True", fillcolor="#edf6fd"] ;
356 -> 357 ;
358 [label="(...)", fillcolor="#C0C0C0"] ;
357 -> 358 ;
365 [label="(...)", fillcolor="#C0C0C0"] ;
357 -> 365 ;
372 [label="AGEGRP <= 18.5\ngini = 0.374\nsamples = 209\nvalue = [1926.13, 5815.488]\nclass = True", fillcolor="#7bbdee"] ;
356 -> 372 ;
373 [label="(...)", fillcolor="#C0C0C0"] ;
372 -> 373 ;
380 [label="(...)", fillcolor="#C0C0C0"] ;
372 -> 380 ;
387 [label="CMA <= 830.0\ngini = 0.472\nsamples = 569\nvalue = [13034.45, 8035.385]\nclass = False", fillcolor="#f5cfb3"] ;
355 -> 387 ;
388 [label="CFSTAT <= 7.5\ngini = 0.461\nsamples = 36\nvalue = [481.224, 851.55]\nclass = True", fillcolor="#a9d4f4"] ;
387 -> 388 ;
389 [label="(...)", fillcolor="#C0C0C0"] ;
388 -> 389 ;
394 [label="(...)", fillcolor="#C0C0C0"] ;
388 -> 394 ;
399 [label="PR <= 47.5\ngini = 0.463\nsamples = 533\nvalue = [12553.226, 7183.835]\nclass = False", fillcolor="#f4c9aa"] ;
387 -> 399 ;
400 [label="(...)", fillcolor="#C0C0C0"] ;
399 -> 400 ;
407 [label="(...)", fillcolor="#C0C0C0"] ;
399 -> 407 ;
414 [label="ETHDER <= 8.5\ngini = 0.378\nsamples = 4661\nvalue = [129007.374, 43583.233]\nclass = False", fillcolor="#eeac7c"] ;
354 -> 414 ;
415 [label="ETHDER <= 1.5\ngini = 0.187\nsamples = 2016\nvalue = [66875.294, 7776.587]\nclass = False", fillcolor="#e89050"] ;
414 -> 415 ;
416 [label="LSTWRK <= 3.5\ngini = 0.392\nsamples = 504\nvalue = [13667.346, 4999.864]\nclass = False", fillcolor="#efaf81"] ;
415 -> 416 ;
417 [label="(...)", fillcolor="#C0C0C0"] ;
416 -> 417 ;
424 [label="(...)", fillcolor="#C0C0C0"] ;
416 -> 424 ;
431 [label="ETHDER <= 4.5\ngini = 0.094\nsamples = 1512\nvalue = [53207.948, 2776.724]\nclass = False", fillcolor="#e68843"] ;
415 -> 431 ;
432 [label="(...)", fillcolor="#C0C0C0"] ;
431 -> 432 ;
439 [label="(...)", fillcolor="#C0C0C0"] ;
431 -> 439 ;
446 [label="ETHDER <= 34.0\ngini = 0.464\nsamples = 2645\nvalue = [62132.08, 35806.645]\nclass = False", fillcolor="#f4caab"] ;
414 -> 446 ;
447 [label="AGEGRP <= 11.5\ngini = 0.368\nsamples = 785\nvalue = [7071.967, 21995.446]\nclass = True", fillcolor="#79bded"] ;
446 -> 447 ;
448 [label="(...)", fillcolor="#C0C0C0"] ;
447 -> 448 ;
455 [label="(...)", fillcolor="#C0C0C0"] ;
447 -> 455 ;
462 [label="ETHDER <= 47.5\ngini = 0.321\nsamples = 1860\nvalue = [55060.114, 13811.2]\nclass = False", fillcolor="#eca16b"] ;
446 -> 462 ;
463 [label="(...)", fillcolor="#C0C0C0"] ;
462 -> 463 ;
470 [label="(...)", fillcolor="#C0C0C0"] ;
462 -> 470 ;
}