digraph Tree {
node [shape=box, style="filled, rounded", color="black", fontname=helvetica] ;
edge [fontname=helvetica] ;
0 [label="VisMin <= 12.5\ngini = 0.34\nsamples = 179353\nvalue = [8220919.28, 2309431.01]\nclass = False", fillcolor="#eca471"] ;
1 [label="VisMin <= 6.5\ngini = 0.43\nsamples = 60677\nvalue = [2431233.08, 1133424.71]\nclass = False", fillcolor="#f1bc95"] ;
0 -> 1 [labeldistance=2.5, labelangle=45, headlabel="True"] ;
2 [label="POBF <= 5.5\ngini = 0.4\nsamples = 52066\nvalue = [2221601.56, 841168.24]\nclass = False", fillcolor="#efb184"] ;
1 -> 2 ;
3 [label="POB <= 20.5\ngini = 0.38\nsamples = 41677\nvalue = [1836414.69, 613838.03]\nclass = False", fillcolor="#eeab7b"] ;
2 -> 3 ;
4 [label="TotInc_AT <= 94444444.0\ngini = 0.44\nsamples = 12321\nvalue = [487563.29, 236335.14]\nclass = False", fillcolor="#f2be99"] ;
3 -> 4 ;
5 [label="DPGRSUM <= 3.5\ngini = 0.48\nsamples = 7083\nvalue = [252414.38, 163002.15]\nclass = False", fillcolor="#f6d2b9"] ;
4 -> 5 ;
6 [label="(...)", fillcolor="#C0C0C0"] ;
5 -> 6 ;
1375 [label="(...)", fillcolor="#C0C0C0"] ;
5 -> 1375 ;
4512 [label="CFInc_AT <= 22.5\ngini = 0.36\nsamples = 5238\nvalue = [235148.91, 73332.99]\nclass = False", fillcolor="#eda877"] ;
4 -> 4512 ;
4513 [label="(...)", fillcolor="#C0C0C0"] ;
4512 -> 4513 ;
6952 [label="(...)", fillcolor="#C0C0C0"] ;
4512 -> 6952 ;
7815 [label="CFInc <= 23.5\ngini = 0.34\nsamples = 29356\nvalue = [1348851.4, 377502.89]\nclass = False", fillcolor="#eca470"] ;
3 -> 7815 ;
7816 [label="MarStH <= 1.5\ngini = 0.3\nsamples = 20948\nvalue = [1003055.87, 227993.21]\nclass = False", fillcolor="#eb9e66"] ;
7815 -> 7816 ;
7817 [label="(...)", fillcolor="#C0C0C0"] ;
7816 -> 7817 ;
11002 [label="(...)", fillcolor="#C0C0C0"] ;
7816 -> 11002 ;
17649 [label="DPGRSUM <= 4.0\ngini = 0.42\nsamples = 8408\nvalue = [345795.53, 149509.68]\nclass = False", fillcolor="#f0b78f"] ;
7815 -> 17649 ;
17650 [label="(...)", fillcolor="#C0C0C0"] ;
17649 -> 17650 ;
21383 [label="(...)", fillcolor="#C0C0C0"] ;
17649 -> 21383 ;
22870 [label="MrkInc <= 94444444.0\ngini = 0.47\nsamples = 10389\nvalue = [385186.87, 227330.2]\nclass = False", fillcolor="#f4cbae"] ;
2 -> 22870 ;
22871 [label="LOC_ST_RES <= 2.5\ngini = 0.49\nsamples = 6094\nvalue = [200036.38, 160293.08]\nclass = False", fillcolor="#fae6d8"] ;
22870 -> 22871 ;
22872 [label="DPGRSUM <= 6.5\ngini = 0.5\nsamples = 2368\nvalue = [69186.94, 72369.79]\nclass = True", fillcolor="#f6fbfe"] ;
22871 -> 22872 ;
22873 [label="(...)", fillcolor="#C0C0C0"] ;
22872 -> 22873 ;
23770 [label="(...)", fillcolor="#C0C0C0"] ;
22872 -> 23770 ;
24465 [label="DPGRSUM <= 6.5\ngini = 0.48\nsamples = 3726\nvalue = [130849.44, 87923.29]\nclass = False", fillcolor="#f6d6be"] ;
22871 -> 24465 ;
24466 [label="(...)", fillcolor="#C0C0C0"] ;
24465 -> 24466 ;
25791 [label="(...)", fillcolor="#C0C0C0"] ;
24465 -> 25791 ;
26976 [label="DPGRSUM <= 5.5\ngini = 0.39\nsamples = 4295\nvalue = [185150.49, 67037.12]\nclass = False", fillcolor="#eeaf81"] ;
22870 -> 26976 ;
26977 [label="PKID15_24 <= 0.5\ngini = 0.45\nsamples = 1650\nvalue = [63072.85, 32183.77]\nclass = False", fillcolor="#f2c19e"] ;
26976 -> 26977 ;
26978 [label="(...)", fillcolor="#C0C0C0"] ;
26977 -> 26978 ;
27579 [label="(...)", fillcolor="#C0C0C0"] ;
26977 -> 27579 ;
28070 [label="PR5 <= 79.0\ngini = 0.35\nsamples = 2645\nvalue = [122077.64, 34853.35]\nclass = False", fillcolor="#eca572"] ;
26976 -> 28070 ;
28071 [label="(...)", fillcolor="#C0C0C0"] ;
28070 -> 28071 ;
29020 [label="(...)", fillcolor="#C0C0C0"] ;
28070 -> 29020 ;
29673 [label="POBF <= 5.5\ngini = 0.49\nsamples = 8611\nvalue = [209631.52, 292256.47]\nclass = True", fillcolor="#c7e3f8"] ;
1 -> 29673 ;
29674 [label="POB <= 26.5\ngini = 0.37\nsamples = 5417\nvalue = [77852.94, 239589.67]\nclass = True", fillcolor="#79bded"] ;
29673 -> 29674 ;
29675 [label="VisMin <= 9.5\ngini = 0.31\nsamples = 4742\nvalue = [52482.54, 225478.46]\nclass = True", fillcolor="#67b4eb"] ;
29674 -> 29675 ;
29676 [label="DETH123 <= 1.5\ngini = 0.16\nsamples = 3671\nvalue = [18704.47, 195886.03]\nclass = True", fillcolor="#4ca6e7"] ;
29675 -> 29676 ;
29677 [label="(...)", fillcolor="#C0C0C0"] ;
29676 -> 29677 ;
30160 [label="(...)", fillcolor="#C0C0C0"] ;
29676 -> 30160 ;
30275 [label="MrkInc <= 94444444.0\ngini = 0.5\nsamples = 1071\nvalue = [33778.07, 29592.43]\nclass = False", fillcolor="#fcefe6"] ;
29675 -> 30275 ;
30276 [label="(...)", fillcolor="#C0C0C0"] ;
30275 -> 30276 ;
30741 [label="(...)", fillcolor="#C0C0C0"] ;
30275 -> 30741 ;
31008 [label="LSTWRK <= 3.5\ngini = 0.46\nsamples = 675\nvalue = [25370.4, 14111.21]\nclass = False", fillcolor="#f3c7a7"] ;
29674 -> 31008 ;
31009 [label="HHInc_AT <= 10.5\ngini = 0.47\nsamples = 531\nvalue = [19296.25, 12185.21]\nclass = False", fillcolor="#f5d1b6"] ;
31008 -> 31009 ;
31010 [label="(...)", fillcolor="#C0C0C0"] ;
31009 -> 31010 ;
31037 [label="(...)", fillcolor="#C0C0C0"] ;
31009 -> 31037 ;
31332 [label="EFInc <= 32.5\ngini = 0.37\nsamples = 144\nvalue = [6074.15, 1926.0]\nclass = False", fillcolor="#eda978"] ;
31008 -> 31332 ;
31333 [label="(...)", fillcolor="#C0C0C0"] ;
31332 -> 31333 ;
31390 [label="(...)", fillcolor="#C0C0C0"] ;
31332 -> 31390 ;
31391 [label="WRKACT <= 1.5\ngini = 0.41\nsamples = 3194\nvalue = [131778.58, 52666.8]\nclass = False", fillcolor="#efb388"] ;
29673 -> 31391 ;
31392 [label="MarStH <= 1.5\ngini = 0.32\nsamples = 953\nvalue = [45111.72, 11185.25]\nclass = False", fillcolor="#eba06a"] ;
31391 -> 31392 ;
31393 [label="Citizen <= 2.5\ngini = 0.42\nsamples = 257\nvalue = [10555.79, 4481.51]\nclass = False", fillcolor="#f0b68d"] ;
31392 -> 31393 ;
31394 [label="(...)", fillcolor="#C0C0C0"] ;
31393 -> 31394 ;
31507 [label="(...)", fillcolor="#C0C0C0"] ;
31393 -> 31507 ;
31548 [label="DETH123 <= 1.5\ngini = 0.27\nsamples = 696\nvalue = [34555.92, 6703.74]\nclass = False", fillcolor="#ea995f"] ;
31392 -> 31548 ;
31549 [label="(...)", fillcolor="#C0C0C0"] ;
31548 -> 31549 ;
31806 [label="(...)", fillcolor="#C0C0C0"] ;
31548 -> 31806 ;
31855 [label="PKID6_14 <= 4.5\ngini = 0.44\nsamples = 2241\nvalue = [86666.86, 41481.55]\nclass = False", fillcolor="#f1bd98"] ;
31391 -> 31855 ;
31856 [label="POBM <= 7.0\ngini = 0.42\nsamples = 1931\nvalue = [76555.68, 33666.52]\nclass = False", fillcolor="#f0b890"] ;
31855 -> 31856 ;
31857 [label="(...)", fillcolor="#C0C0C0"] ;
31856 -> 31857 ;
32882 [label="(...)", fillcolor="#C0C0C0"] ;
31856 -> 32882 ;
33005 [label="CIP2011_STEM_SUM <= 1.5\ngini = 0.49\nsamples = 310\nvalue = [10111.19, 7815.03]\nclass = False", fillcolor="#f9e2d2"] ;
31855 -> 33005 ;
33006 [label="(...)", fillcolor="#C0C0C0"] ;
33005 -> 33006 ;
33013 [label="(...)", fillcolor="#C0C0C0"] ;
33005 -> 33013 ;
33208 [label="PR5 <= 29.5\ngini = 0.28\nsamples = 118676\nvalue = [5789686.21, 1176006.3]\nclass = False", fillcolor="#ea9b61"] ;
0 -> 33208 [labeldistance=2.5, labelangle=-45, headlabel="False"] ;
33209 [label="CMA <= 480.5\ngini = 0.08\nsamples = 79281\nvalue = [4457446.38, 192689.53]\nclass = False", fillcolor="#e68642"] ;
33208 -> 33209 ;
33210 [label="GENSTAT <= 2.5\ngini = 0.13\nsamples = 41400\nvalue = [2257323.67, 166353.06]\nclass = False", fillcolor="#e78a48"] ;
33209 -> 33210 ;
33211 [label="ETHDER <= 8.5\ngini = 0.48\nsamples = 5937\nvalue = [209395.82, 141868.61]\nclass = False", fillcolor="#f7d6bf"] ;
33210 -> 33211 ;
33212 [label="AGEGRP <= 3.5\ngini = 0.03\nsamples = 597\nvalue = [34745.01, 555.62]\nclass = False", fillcolor="#e5833c"] ;
33211 -> 33212 ;
33213 [label="(...)", fillcolor="#C0C0C0"] ;
33212 -> 33213 ;
33220 [label="(...)", fillcolor="#C0C0C0"] ;
33212 -> 33220 ;
33255 [label="ETHDER <= 20.5\ngini = 0.49\nsamples = 5340\nvalue = [174650.81, 141312.99]\nclass = False", fillcolor="#fae7d9"] ;
33211 -> 33255 ;
33256 [label="(...)", fillcolor="#C0C0C0"] ;
33255 -> 33256 ;
34695 [label="(...)", fillcolor="#C0C0C0"] ;
33255 -> 34695 ;
36436 [label="ETHDER <= 9.5\ngini = 0.02\nsamples = 35463\nvalue = [2047927.85, 24484.45]\nclass = False", fillcolor="#e5833b"] ;
33210 -> 36436 ;
36437 [label="EfDIMBM <= 19.5\ngini = 0.0\nsamples = 25521\nvalue = [1489780.9, 2555.87]\nclass = False", fillcolor="#e58139"] ;
36436 -> 36437 ;
36438 [label="(...)", fillcolor="#C0C0C0"] ;
36437 -> 36438 ;
36735 [label="(...)", fillcolor="#C0C0C0"] ;
36437 -> 36735 ;
36786 [label="LSTWRK <= 3.5\ngini = 0.07\nsamples = 9942\nvalue = [558146.95, 21928.58]\nclass = False", fillcolor="#e68641"] ;
36436 -> 36786 ;
36787 [label="(...)", fillcolor="#C0C0C0"] ;
36786 -> 36787 ;
37474 [label="(...)", fillcolor="#C0C0C0"] ;
36786 -> 37474 ;
37905 [label="VisMin <= 50.5\ngini = 0.02\nsamples = 37881\nvalue = [2200122.71, 26336.47]\nclass = False", fillcolor="#e5833b"] ;
33209 -> 37905 ;
37906 [label="POB <= 9.5\ngini = 0.02\nsamples = 37541\nvalue = [2187676.33, 19854.06]\nclass = False", fillcolor="#e5823b"] ;
37905 -> 37906 ;
37907 [label="PR1 <= 12.5\ngini = 0.01\nsamples = 37306\nvalue = [2180712.79, 13483.17]\nclass = False", fillcolor="#e5823a"] ;
37906 -> 37907 ;
37908 [label="(...)", fillcolor="#C0C0C0"] ;
37907 -> 37908 ;
38011 [label="(...)", fillcolor="#C0C0C0"] ;
37907 -> 38011 ;
38838 [label="PR <= 18.5\ngini = 0.5\nsamples = 235\nvalue = [6963.54, 6370.89]\nclass = False", fillcolor="#fdf4ee"] ;
37906 -> 38838 ;
38839 [label="(...)", fillcolor="#C0C0C0"] ;
38838 -> 38839 ;
38854 [label="(...)", fillcolor="#C0C0C0"] ;
38838 -> 38854 ;
38993 [label="HHTYPE <= 1.5\ngini = 0.45\nsamples = 340\nvalue = [12446.38, 6482.4]\nclass = False", fillcolor="#f3c3a0"] ;
37905 -> 38993 ;
38994 [label="MrkInc <= 299326.5\ngini = 0.48\nsamples = 60\nvalue = [1370.52, 1963.41]\nclass = True", fillcolor="#c3e1f7"] ;
38993 -> 38994 ;
38995 [label="(...)", fillcolor="#C0C0C0"] ;
38994 -> 38995 ;
39024 [label="(...)", fillcolor="#C0C0C0"] ;
38994 -> 39024 ;
39025 [label="PR1 <= 18.5\ngini = 0.41\nsamples = 280\nvalue = [11075.86, 4519.0]\nclass = False", fillcolor="#f0b48a"] ;
38993 -> 39025 ;
39026 [label="(...)", fillcolor="#C0C0C0"] ;
39025 -> 39026 ;
39047 [label="(...)", fillcolor="#C0C0C0"] ;
39025 -> 39047 ;
39204 [label="POBM <= 1.5\ngini = 0.49\nsamples = 39395\nvalue = [1332239.83, 983316.77]\nclass = False", fillcolor="#f8decb"] ;
33208 -> 39204 ;
39205 [label="REGIND <= 0.5\ngini = 0.26\nsamples = 14523\nvalue = [725814.54, 128165.87]\nclass = False", fillcolor="#ea975c"] ;
39204 -> 39205 ;
39206 [label="TotInc <= 94444444.0\ngini = 0.2\nsamples = 13023\nvalue = [677597.92, 87135.27]\nclass = False", fillcolor="#e89152"] ;
39205 -> 39206 ;
39207 [label="MrkInc <= 29500.0\ngini = 0.26\nsamples = 7826\nvalue = [388089.61, 71987.24]\nclass = False", fillcolor="#ea985e"] ;
39206 -> 39207 ;
39208 [label="(...)", fillcolor="#C0C0C0"] ;
39207 -> 39208 ;
40157 [label="(...)", fillcolor="#C0C0C0"] ;
39207 -> 40157 ;
41404 [label="POB <= 1.5\ngini = 0.09\nsamples = 5197\nvalue = [289508.3, 15148.04]\nclass = False", fillcolor="#e68843"] ;
39206 -> 41404 ;
41405 [label="(...)", fillcolor="#C0C0C0"] ;
41404 -> 41405 ;
42228 [label="(...)", fillcolor="#C0C0C0"] ;
41404 -> 42228 ;
42247 [label="AGEGRP <= 1.5\ngini = 0.5\nsamples = 1500\nvalue = [48216.62, 41030.6]\nclass = False", fillcolor="#fbece1"] ;
39205 -> 42247 ;
42248 [label="LoMBM <= 1.5\ngini = 0.28\nsamples = 153\nvalue = [7370.36, 1481.41]\nclass = False", fillcolor="#ea9a61"] ;
42247 -> 42248 ;
42249 [label="(...)", fillcolor="#C0C0C0"] ;
42248 -> 42249 ;
42286 [label="(...)", fillcolor="#C0C0C0"] ;
42248 -> 42286 ;
42327 [label="CIP2011 <= 10.5\ngini = 0.5\nsamples = 1347\nvalue = [40846.27, 39549.19]\nclass = False", fillcolor="#fefbf9"] ;
42247 -> 42327 ;
42328 [label="(...)", fillcolor="#C0C0C0"] ;
42327 -> 42328 ;
42487 [label="(...)", fillcolor="#C0C0C0"] ;
42327 -> 42487 ;
43332 [label="Mob5 <= 5.5\ngini = 0.49\nsamples = 24872\nvalue = [606425.29, 855150.9]\nclass = True", fillcolor="#c5e2f7"] ;
39204 -> 43332 ;
43333 [label="LOC_ST_RES <= 2.5\ngini = 0.46\nsamples = 21270\nvalue = [459348.0, 791114.29]\nclass = True", fillcolor="#acd6f4"] ;
43332 -> 43333 ;
43334 [label="POB <= 10.5\ngini = 0.36\nsamples = 6930\nvalue = [94846.9, 310283.42]\nclass = True", fillcolor="#76bbed"] ;
43333 -> 43334 ;
43335 [label="(...)", fillcolor="#C0C0C0"] ;
43334 -> 43335 ;
44532 [label="(...)", fillcolor="#C0C0C0"] ;
43334 -> 44532 ;
46769 [label="CitOth <= 93.5\ngini = 0.49\nsamples = 14340\nvalue = [364501.1, 480830.87]\nclass = True", fillcolor="#cfe7f9"] ;
43333 -> 46769 ;
46770 [label="(...)", fillcolor="#C0C0C0"] ;
46769 -> 46770 ;
50015 [label="(...)", fillcolor="#C0C0C0"] ;
46769 -> 50015 ;
55510 [label="POB <= 9.5\ngini = 0.42\nsamples = 3602\nvalue = [147077.29, 64036.61]\nclass = False", fillcolor="#f0b88f"] ;
43332 -> 55510 ;
55511 [label="PR <= 29.5\ngini = 0.36\nsamples = 1579\nvalue = [72299.1, 22074.01]\nclass = False", fillcolor="#eda775"] ;
55510 -> 55511 ;
55512 [label="(...)", fillcolor="#C0C0C0"] ;
55511 -> 55512 ;
55805 [label="(...)", fillcolor="#C0C0C0"] ;
55511 -> 55805 ;
56324 [label="PR <= 29.5\ngini = 0.46\nsamples = 2023\nvalue = [74778.18, 41962.61]\nclass = False", fillcolor="#f4c8a8"] ;
55510 -> 56324 ;
56325 [label="(...)", fillcolor="#C0C0C0"] ;
56324 -> 56325 ;
56724 [label="(...)", fillcolor="#C0C0C0"] ;
56324 -> 56724 ;
}