digraph Tree {
node [shape=box, style="filled, rounded", color="black", fontname=helvetica] ;
edge [fontname=helvetica] ;
0 [label="VisMin <= 12.5\ngini = 0.31\nsamples = 179353\nvalue = [8512692.07, 2017660.09]\nclass = False", fillcolor="#eb9f68"] ;
1 [label="HHMRKINC <= 26.5\ngini = 0.39\nsamples = 60926\nvalue = [2629523.52, 951651.88]\nclass = False", fillcolor="#eeaf81"] ;
0 -> 1 [labeldistance=2.5, labelangle=45, headlabel="True"] ;
2 [label="CfSize <= 1.5\ngini = 0.37\nsamples = 47260\nvalue = [2109142.16, 667220.78]\nclass = False", fillcolor="#eda978"] ;
1 -> 2 ;
3 [label="TotInc <= 3.5\ngini = 0.43\nsamples = 7326\nvalue = [295556.29, 137073.96]\nclass = False", fillcolor="#f1bb95"] ;
2 -> 3 ;
4 [label="VisMin <= 2.5\ngini = 0.39\nsamples = 4983\nvalue = [216594.44, 77519.35]\nclass = False", fillcolor="#eeae80"] ;
3 -> 4 ;
5 [label="POB <= 20.5\ngini = 0.32\nsamples = 2538\nvalue = [118963.21, 29666.92]\nclass = False", fillcolor="#eba06a"] ;
4 -> 5 ;
6 [label="(...)", fillcolor="#C0C0C0"] ;
5 -> 6 ;
95 [label="(...)", fillcolor="#C0C0C0"] ;
5 -> 95 ;
1370 [label="CFSTAT <= 7.5\ngini = 0.44\nsamples = 2445\nvalue = [97631.24, 47852.43]\nclass = False", fillcolor="#f2bf9a"] ;
4 -> 1370 ;
1371 [label="(...)", fillcolor="#C0C0C0"] ;
1370 -> 1371 ;
2560 [label="(...)", fillcolor="#C0C0C0"] ;
1370 -> 2560 ;
2937 [label="CFSTAT <= 6.5\ngini = 0.49\nsamples = 2343\nvalue = [78961.85, 59554.61]\nclass = False", fillcolor="#f9e0ce"] ;
3 -> 2937 ;
2938 [label="EfDIMBM <= 13.5\ngini = 0.5\nsamples = 1388\nvalue = [40741.76, 40703.36]\nclass = False", fillcolor="#ffffff"] ;
2937 -> 2938 ;
2939 [label="(...)", fillcolor="#C0C0C0"] ;
2938 -> 2939 ;
3578 [label="(...)", fillcolor="#C0C0C0"] ;
2938 -> 3578 ;
3957 [label="PR5 <= 64.5\ngini = 0.44\nsamples = 955\nvalue = [38220.09, 18851.25]\nclass = False", fillcolor="#f2bf9b"] ;
2937 -> 3957 ;
3958 [label="(...)", fillcolor="#C0C0C0"] ;
3957 -> 3958 ;
4385 [label="(...)", fillcolor="#C0C0C0"] ;
3957 -> 4385 ;
4582 [label="CitOth <= 12.5\ngini = 0.35\nsamples = 39934\nvalue = [1813585.87, 530146.82]\nclass = False", fillcolor="#eda673"] ;
2 -> 4582 ;
4583 [label="POB <= 18.5\ngini = 0.3\nsamples = 15222\nvalue = [724729.68, 166812.47]\nclass = False", fillcolor="#eb9e67"] ;
4582 -> 4583 ;
4584 [label="COW <= 5.5\ngini = 0.4\nsamples = 4239\nvalue = [179076.07, 67927.45]\nclass = False", fillcolor="#efb184"] ;
4583 -> 4584 ;
4585 [label="(...)", fillcolor="#C0C0C0"] ;
4584 -> 4585 ;
5944 [label="(...)", fillcolor="#C0C0C0"] ;
4584 -> 5944 ;
7217 [label="POB <= 23.5\ngini = 0.26\nsamples = 10983\nvalue = [545653.6, 98885.02]\nclass = False", fillcolor="#ea985d"] ;
4583 -> 7217 ;
7218 [label="(...)", fillcolor="#C0C0C0"] ;
7217 -> 7218 ;
9253 [label="(...)", fillcolor="#C0C0C0"] ;
7217 -> 9253 ;
12118 [label="POB <= 20.5\ngini = 0.38\nsamples = 24712\nvalue = [1088856.19, 363334.35]\nclass = False", fillcolor="#eeab7b"] ;
4582 -> 12118 ;
12119 [label="LSTWRK <= 6.5\ngini = 0.42\nsamples = 12149\nvalue = [497043.92, 214817.73]\nclass = False", fillcolor="#f0b78f"] ;
12118 -> 12119 ;
12120 [label="(...)", fillcolor="#C0C0C0"] ;
12119 -> 12120 ;
16877 [label="(...)", fillcolor="#C0C0C0"] ;
12119 -> 16877 ;
19970 [label="ETHDER <= 31.5\ngini = 0.32\nsamples = 12563\nvalue = [591812.27, 148516.61]\nclass = False", fillcolor="#eca16b"] ;
12118 -> 19970 ;
19971 [label="(...)", fillcolor="#C0C0C0"] ;
19970 -> 19971 ;
24002 [label="(...)", fillcolor="#C0C0C0"] ;
19970 -> 24002 ;
26381 [label="CFInc_AT <= 21.5\ngini = 0.46\nsamples = 13666\nvalue = [520381.36, 284431.1]\nclass = False", fillcolor="#f3c6a5"] ;
1 -> 26381 ;
26382 [label="EfSize <= 1.5\ngini = 0.35\nsamples = 3206\nvalue = [147028.17, 43811.8]\nclass = False", fillcolor="#eda774"] ;
26381 -> 26382 ;
26383 [label="CFInc_AT <= 17.5\ngini = 0.5\nsamples = 502\nvalue = [15220.66, 13517.43]\nclass = False", fillcolor="#fcf1e9"] ;
26382 -> 26383 ;
26384 [label="VisMin <= 2.5\ngini = 0.5\nsamples = 483\nvalue = [15072.56, 12702.6]\nclass = False", fillcolor="#fbebe0"] ;
26383 -> 26384 ;
26385 [label="(...)", fillcolor="#C0C0C0"] ;
26384 -> 26385 ;
26512 [label="(...)", fillcolor="#C0C0C0"] ;
26384 -> 26512 ;
26743 [label="CIP2011_STEM_SUM <= 49.5\ngini = 0.26\nsamples = 19\nvalue = [148.1, 814.82]\nclass = True", fillcolor="#5dafea"] ;
26383 -> 26743 ;
26744 [label="(...)", fillcolor="#C0C0C0"] ;
26743 -> 26744 ;
26757 [label="(...)", fillcolor="#C0C0C0"] ;
26743 -> 26757 ;
26758 [label="LOC_ST_RES <= 2.5\ngini = 0.3\nsamples = 2704\nvalue = [131807.51, 30294.38]\nclass = False", fillcolor="#eb9e67"] ;
26382 -> 26758 ;
26759 [label="TotInc_AT <= 3.5\ngini = 0.46\nsamples = 305\nvalue = [11777.23, 6481.52]\nclass = False", fillcolor="#f3c6a6"] ;
26758 -> 26759 ;
26760 [label="(...)", fillcolor="#C0C0C0"] ;
26759 -> 26760 ;
26827 [label="(...)", fillcolor="#C0C0C0"] ;
26759 -> 26827 ;
26966 [label="AGEGRP <= 12.5\ngini = 0.28\nsamples = 2399\nvalue = [120030.28, 23812.86]\nclass = False", fillcolor="#ea9a60"] ;
26758 -> 26966 ;
26967 [label="(...)", fillcolor="#C0C0C0"] ;
26966 -> 26967 ;
27520 [label="(...)", fillcolor="#C0C0C0"] ;
26966 -> 27520 ;
28031 [label="EfSize <= 2.5\ngini = 0.48\nsamples = 10460\nvalue = [373353.18, 240619.29]\nclass = False", fillcolor="#f6d2b9"] ;
26381 -> 28031 ;
28032 [label="GENSTAT <= 1.5\ngini = 0.5\nsamples = 1387\nvalue = [38591.04, 42775.46]\nclass = True", fillcolor="#ecf5fc"] ;
28031 -> 28032 ;
28033 [label="MarStH <= 2.5\ngini = 0.5\nsamples = 1218\nvalue = [36405.87, 34738.93]\nclass = False", fillcolor="#fef9f6"] ;
28032 -> 28033 ;
28034 [label="(...)", fillcolor="#C0C0C0"] ;
28033 -> 28034 ;
28753 [label="(...)", fillcolor="#C0C0C0"] ;
28033 -> 28753 ;
28920 [label="POBF <= 3.5\ngini = 0.34\nsamples = 169\nvalue = [2185.17, 8036.52]\nclass = True", fillcolor="#6fb8ec"] ;
28032 -> 28920 ;
28921 [label="(...)", fillcolor="#C0C0C0"] ;
28920 -> 28921 ;
28930 [label="(...)", fillcolor="#C0C0C0"] ;
28920 -> 28930 ;
28997 [label="IMMCAT5 <= 2.5\ngini = 0.47\nsamples = 9073\nvalue = [334762.14, 197843.84]\nclass = False", fillcolor="#f4cbae"] ;
28031 -> 28997 ;
28998 [label="LSTWRK <= 3.5\ngini = 0.5\nsamples = 2714\nvalue = [79592.95, 80479.81]\nclass = True", fillcolor="#fdfeff"] ;
28997 -> 28998 ;
28999 [label="(...)", fillcolor="#C0C0C0"] ;
28998 -> 28999 ;
30038 [label="(...)", fillcolor="#C0C0C0"] ;
28998 -> 30038 ;
30897 [label="ROOMS <= 5.5\ngini = 0.43\nsamples = 6359\nvalue = [255169.19, 117364.03]\nclass = False", fillcolor="#f1bb94"] ;
28997 -> 30897 ;
30898 [label="(...)", fillcolor="#C0C0C0"] ;
30897 -> 30898 ;
32013 [label="(...)", fillcolor="#C0C0C0"] ;
30897 -> 32013 ;
35208 [label="CitOth <= 93.5\ngini = 0.26\nsamples = 118427\nvalue = [5883168.55, 1066008.21]\nclass = False", fillcolor="#ea985d"] ;
0 -> 35208 [labeldistance=2.5, labelangle=-45, headlabel="False"] ;
35209 [label="MrkInc <= 47.5\ngini = 0.47\nsamples = 13260\nvalue = [491450.56, 286514.64]\nclass = False", fillcolor="#f4caac"] ;
35208 -> 35209 ;
35210 [label="EfSize <= 1.5\ngini = 0.48\nsamples = 9996\nvalue = [351928.15, 232774.55]\nclass = False", fillcolor="#f6d4bc"] ;
35209 -> 35210 ;
35211 [label="ETHDER <= 8.5\ngini = 0.5\nsamples = 1681\nvalue = [49594.27, 49184.36]\nclass = False", fillcolor="#fffefd"] ;
35210 -> 35211 ;
35212 [label="CitOth <= 3.5\ngini = 0.01\nsamples = 174\nvalue = [9408.52, 37.04]\nclass = False", fillcolor="#e5813a"] ;
35211 -> 35212 ;
35213 [label="(...)", fillcolor="#C0C0C0"] ;
35212 -> 35213 ;
35218 [label="(...)", fillcolor="#C0C0C0"] ;
35212 -> 35218 ;
35219 [label="EFInc_AT <= 13.5\ngini = 0.49\nsamples = 1507\nvalue = [40185.75, 49147.32]\nclass = True", fillcolor="#dbedfa"] ;
35211 -> 35219 ;
35220 [label="(...)", fillcolor="#C0C0C0"] ;
35219 -> 35220 ;
36053 [label="(...)", fillcolor="#C0C0C0"] ;
35219 -> 36053 ;
36370 [label="EFInc <= 22.5\ngini = 0.47\nsamples = 8315\nvalue = [302333.88, 183590.19]\nclass = False", fillcolor="#f5ceb1"] ;
35210 -> 36370 ;
36371 [label="CitOth <= 2.5\ngini = 0.44\nsamples = 3977\nvalue = [153927.77, 76814.0]\nclass = False", fillcolor="#f2c09c"] ;
36370 -> 36371 ;
36372 [label="(...)", fillcolor="#C0C0C0"] ;
36371 -> 36372 ;
36587 [label="(...)", fillcolor="#C0C0C0"] ;
36371 -> 36587 ;
38654 [label="CFSTAT <= 1.5\ngini = 0.49\nsamples = 4338\nvalue = [148406.11, 106776.19]\nclass = False", fillcolor="#f8dcc7"] ;
36370 -> 38654 ;
38655 [label="(...)", fillcolor="#C0C0C0"] ;
38654 -> 38655 ;
39462 [label="(...)", fillcolor="#C0C0C0"] ;
38654 -> 39462 ;
41509 [label="CIP2011_STEM_SUM <= 93.5\ngini = 0.4\nsamples = 3264\nvalue = [139522.42, 53740.09]\nclass = False", fillcolor="#efb285"] ;
35209 -> 41509 ;
41510 [label="CMA <= 533.5\ngini = 0.43\nsamples = 2124\nvalue = [86446.54, 38332.85]\nclass = False", fillcolor="#f1b991"] ;
41509 -> 41510 ;
41511 [label="EFInc <= 10.5\ngini = 0.33\nsamples = 637\nvalue = [29077.36, 7704.37]\nclass = False", fillcolor="#eca26d"] ;
41510 -> 41511 ;
41512 [label="(...)", fillcolor="#C0C0C0"] ;
41511 -> 41512 ;
41663 [label="(...)", fillcolor="#C0C0C0"] ;
41511 -> 41663 ;
41828 [label="POBM <= 2.5\ngini = 0.45\nsamples = 1487\nvalue = [57369.18, 30628.48]\nclass = False", fillcolor="#f3c4a3"] ;
41510 -> 41828 ;
41829 [label="(...)", fillcolor="#C0C0C0"] ;
41828 -> 41829 ;
41894 [label="(...)", fillcolor="#C0C0C0"] ;
41828 -> 41894 ;
42745 [label="HHMRKINC <= 1.5\ngini = 0.35\nsamples = 1140\nvalue = [53075.88, 15407.24]\nclass = False", fillcolor="#eda672"] ;
41509 -> 42745 ;
42746 [label="REPAIR <= 1.5\ngini = 0.17\nsamples = 85\nvalue = [4851.9, 518.56]\nclass = False", fillcolor="#e88e4e"] ;
42745 -> 42746 ;
42747 [label="(...)", fillcolor="#C0C0C0"] ;
42746 -> 42747 ;
42766 [label="(...)", fillcolor="#C0C0C0"] ;
42746 -> 42766 ;
42777 [label="CitOth <= 2.5\ngini = 0.36\nsamples = 1055\nvalue = [48223.98, 14888.67]\nclass = False", fillcolor="#eda876"] ;
42745 -> 42777 ;
42778 [label="(...)", fillcolor="#C0C0C0"] ;
42777 -> 42778 ;
42863 [label="(...)", fillcolor="#C0C0C0"] ;
42777 -> 42863 ;
43432 [label="PR5 <= 29.5\ngini = 0.22\nsamples = 105167\nvalue = [5391717.99, 779493.57]\nclass = False", fillcolor="#e99356"] ;
35208 -> 43432 ;
43433 [label="PR1 <= 12.5\ngini = 0.05\nsamples = 76267\nvalue = [4355175.59, 124607.18]\nclass = False", fillcolor="#e6853f"] ;
43432 -> 43433 ;
43434 [label="GENSTAT <= 2.5\ngini = 0.21\nsamples = 533\nvalue = [28154.5, 3703.35]\nclass = False", fillcolor="#e89253"] ;
43433 -> 43434 ;
43435 [label="EFInc <= 23.5\ngini = 0.46\nsamples = 51\nvalue = [1111.02, 1925.73]\nclass = True", fillcolor="#abd6f4"] ;
43434 -> 43435 ;
43436 [label="(...)", fillcolor="#C0C0C0"] ;
43435 -> 43436 ;
43451 [label="(...)", fillcolor="#C0C0C0"] ;
43435 -> 43451 ;
43468 [label="HCORENEED_IND <= 494.0\ngini = 0.12\nsamples = 482\nvalue = [27043.48, 1777.62]\nclass = False", fillcolor="#e78946"] ;
43434 -> 43468 ;
43469 [label="(...)", fillcolor="#C0C0C0"] ;
43468 -> 43469 ;
43506 [label="(...)", fillcolor="#C0C0C0"] ;
43468 -> 43506 ;
43559 [label="VisMin <= 50.5\ngini = 0.05\nsamples = 75734\nvalue = [4327021.09, 120903.82]\nclass = False", fillcolor="#e6853f"] ;
43433 -> 43559 ;
43560 [label="POBM <= 2.5\ngini = 0.05\nsamples = 75667\nvalue = [4324205.85, 119940.75]\nclass = False", fillcolor="#e6843e"] ;
43559 -> 43560 ;
43561 [label="(...)", fillcolor="#C0C0C0"] ;
43560 -> 43561 ;
45950 [label="(...)", fillcolor="#C0C0C0"] ;
43560 -> 45950 ;
48451 [label="HHMRKINC <= 60.5\ngini = 0.38\nsamples = 67\nvalue = [2815.24, 963.07]\nclass = False", fillcolor="#eeac7d"] ;
43559 -> 48451 ;
48452 [label="(...)", fillcolor="#C0C0C0"] ;
48451 -> 48452 ;
48477 [label="(...)", fillcolor="#C0C0C0"] ;
48451 -> 48477 ;
48478 [label="LSTWRK <= 6.5\ngini = 0.47\nsamples = 28900\nvalue = [1036542.4, 654886.4]\nclass = False", fillcolor="#f5d1b6"] ;
43432 -> 48478 ;
48479 [label="IMMCAT5 <= 1.5\ngini = 0.5\nsamples = 22577\nvalue = [701222.98, 618739.9]\nclass = False", fillcolor="#fcf0e8"] ;
48478 -> 48479 ;
48480 [label="ETHDER <= 8.5\ngini = 0.48\nsamples = 13034\nvalue = [464749.24, 297824.92]\nclass = False", fillcolor="#f6d2b8"] ;
48479 -> 48480 ;
48481 [label="(...)", fillcolor="#C0C0C0"] ;
48480 -> 48481 ;
49840 [label="(...)", fillcolor="#C0C0C0"] ;
48480 -> 49840 ;
52797 [label="IMMCAT5 <= 11.5\ngini = 0.49\nsamples = 9543\nvalue = [236473.74, 320914.99]\nclass = True", fillcolor="#cbe5f8"] ;
48479 -> 52797 ;
52798 [label="(...)", fillcolor="#C0C0C0"] ;
52797 -> 52798 ;
56743 [label="(...)", fillcolor="#C0C0C0"] ;
52797 -> 56743 ;
59428 [label="ETHDER <= 8.5\ngini = 0.18\nsamples = 6323\nvalue = [335319.42, 36146.49]\nclass = False", fillcolor="#e88f4e"] ;
48478 -> 59428 ;
59429 [label="REGIND <= 0.5\ngini = 0.08\nsamples = 3242\nvalue = [182906.43, 7777.42]\nclass = False", fillcolor="#e68641"] ;
59428 -> 59429 ;
59430 [label="(...)", fillcolor="#C0C0C0"] ;
59429 -> 59430 ;
59641 [label="(...)", fillcolor="#C0C0C0"] ;
59429 -> 59641 ;
59802 [label="POBM <= 1.5\ngini = 0.26\nsamples = 3081\nvalue = [152412.99, 28369.08]\nclass = False", fillcolor="#ea985e"] ;
59428 -> 59802 ;
59803 [label="(...)", fillcolor="#C0C0C0"] ;
59802 -> 59803 ;
60238 [label="(...)", fillcolor="#C0C0C0"] ;
59802 -> 60238 ;
}