digraph Tree {
node [shape=box, style="filled, rounded", color="black", fontname=helvetica] ;
edge [fontname=helvetica] ;
0 [label="ETHNICRP <= 2.5\ngini = 0.14\nsamples = 383760\nvalue = [18739514.59, 1501798.5]\nclass = False", fillcolor="#e78b49"] ;
1 [label="ETHNICRP <= 1.5\ngini = 0.0\nsamples = 167145\nvalue = [8789924.54, 18666.65]\nclass = False", fillcolor="#e58139"] ;
0 -> 1 [labeldistance=2.5, labelangle=45, headlabel="True"] ;
2 [label="BNFNMEMP <= 1.5\ngini = 0.01\nsamples = 79946\nvalue = [4205462.46, 14199.99]\nclass = False", fillcolor="#e5813a"] ;
1 -> 2 ;
3 [label="PROV5P <= 8.0\ngini = 0.06\nsamples = 63\nvalue = [2966.66, 100.0]\nclass = False", fillcolor="#e68540"] ;
2 -> 3 ;
4 [label="CFSIZEP <= 1.5\ngini = 0.28\nsamples = 9\nvalue = [333.33, 66.67]\nclass = False", fillcolor="#ea9a61"] ;
3 -> 4 ;
5 [label="gini = 0.0\nsamples = 1\nvalue = [0.0, 33.33]\nclass = True", fillcolor="#399de5"] ;
4 -> 5 ;
6 [label="HLOSP <= 2.5\ngini = 0.17\nsamples = 8\nvalue = [333.33, 33.33]\nclass = False", fillcolor="#e88e4d"] ;
4 -> 6 ;
7 [label="(...)", fillcolor="#C0C0C0"] ;
6 -> 7 ;
10 [label="(...)", fillcolor="#C0C0C0"] ;
6 -> 10 ;
11 [label="HHINCP <= 8.5\ngini = 0.02\nsamples = 54\nvalue = [2633.33, 33.33]\nclass = False", fillcolor="#e5833c"] ;
3 -> 11 ;
12 [label="HTYPEP <= 4.0\ngini = 0.08\nsamples = 17\nvalue = [733.33, 33.33]\nclass = False", fillcolor="#e68742"] ;
11 -> 12 ;
13 [label="(...)", fillcolor="#C0C0C0"] ;
12 -> 13 ;
14 [label="(...)", fillcolor="#C0C0C0"] ;
12 -> 14 ;
15 [label="gini = 0.0\nsamples = 37\nvalue = [1900.0, 0.0]\nclass = False", fillcolor="#e58139"] ;
11 -> 15 ;
16 [label="CITIZENP <= 1.5\ngini = 0.01\nsamples = 79883\nvalue = [4202495.8, 14099.99]\nclass = False", fillcolor="#e5813a"] ;
2 -> 16 ;
17 [label="PROVP <= 29.5\ngini = 0.0\nsamples = 69694\nvalue = [3672029.66, 8199.99]\nclass = False", fillcolor="#e58139"] ;
16 -> 17 ;
18 [label="CFINCP <= 62.0\ngini = 0.0\nsamples = 19299\nvalue = [1018098.98, 966.67]\nclass = False", fillcolor="#e58139"] ;
17 -> 18 ;
19 [label="(...)", fillcolor="#C0C0C0"] ;
18 -> 19 ;
112 [label="(...)", fillcolor="#C0C0C0"] ;
18 -> 112 ;
195 [label="CFSTATP <= 6.5\ngini = 0.01\nsamples = 50395\nvalue = [2653930.68, 7233.33]\nclass = False", fillcolor="#e5813a"] ;
17 -> 195 ;
196 [label="(...)", fillcolor="#C0C0C0"] ;
195 -> 196 ;
663 [label="(...)", fillcolor="#C0C0C0"] ;
195 -> 663 ;
1456 [label="EFSIZEP <= 5.5\ngini = 0.02\nsamples = 10189\nvalue = [530466.14, 5899.99]\nclass = False", fillcolor="#e5823b"] ;
16 -> 1456 ;
1457 [label="CFINCP <= 4.5\ngini = 0.02\nsamples = 9812\nvalue = [511366.16, 5333.33]\nclass = False", fillcolor="#e5823b"] ;
1456 -> 1457 ;
1458 [label="(...)", fillcolor="#C0C0C0"] ;
1457 -> 1458 ;
1471 [label="(...)", fillcolor="#C0C0C0"] ;
1457 -> 1471 ;
2178 [label="COWP <= 6.5\ngini = 0.06\nsamples = 377\nvalue = [19099.98, 566.67]\nclass = False", fillcolor="#e6853f"] ;
1456 -> 2178 ;
2179 [label="(...)", fillcolor="#C0C0C0"] ;
2178 -> 2179 ;
2202 [label="(...)", fillcolor="#C0C0C0"] ;
2178 -> 2202 ;
2239 [label="PROVP <= 29.5\ngini = 0.0\nsamples = 87199\nvalue = [4584462.08, 4466.66]\nclass = False", fillcolor="#e58139"] ;
1 -> 2239 ;
2240 [label="RCONDP <= 5.5\ngini = 0.0\nsamples = 76317\nvalue = [4016929.32, 3000.0]\nclass = False", fillcolor="#e58139"] ;
2239 -> 2240 ;
2241 [label="CITIZENP <= 1.5\ngini = 0.0\nsamples = 50516\nvalue = [2661664.01, 1366.67]\nclass = False", fillcolor="#e58139"] ;
2240 -> 2241 ;
2242 [label="CMAPUMFP <= 480.5\ngini = 0.0\nsamples = 49998\nvalue = [2635430.7, 900.0]\nclass = False", fillcolor="#e58139"] ;
2241 -> 2242 ;
2243 [label="(...)", fillcolor="#C0C0C0"] ;
2242 -> 2243 ;
2474 [label="(...)", fillcolor="#C0C0C0"] ;
2242 -> 2474 ;
2487 [label="CMAPUMFP <= 480.5\ngini = 0.03\nsamples = 518\nvalue = [26233.31, 466.67]\nclass = False", fillcolor="#e5833d"] ;
2241 -> 2487 ;
2488 [label="(...)", fillcolor="#C0C0C0"] ;
2487 -> 2488 ;
2547 [label="(...)", fillcolor="#C0C0C0"] ;
2487 -> 2547 ;
2554 [label="EFSIZEP <= 5.5\ngini = 0.0\nsamples = 25801\nvalue = [1355265.31, 1633.33]\nclass = False", fillcolor="#e58139"] ;
2240 -> 2554 ;
2555 [label="DGMFSP <= 4.5\ngini = 0.0\nsamples = 24686\nvalue = [1297565.37, 1433.33]\nclass = False", fillcolor="#e58139"] ;
2554 -> 2555 ;
2556 [label="(...)", fillcolor="#C0C0C0"] ;
2555 -> 2556 ;
2605 [label="(...)", fillcolor="#C0C0C0"] ;
2555 -> 2605 ;
2878 [label="CFSIZEP <= 2.5\ngini = 0.01\nsamples = 1115\nvalue = [57699.94, 200.0]\nclass = False", fillcolor="#e5813a"] ;
2554 -> 2878 ;
2879 [label="(...)", fillcolor="#C0C0C0"] ;
2878 -> 2879 ;
2884 [label="(...)", fillcolor="#C0C0C0"] ;
2878 -> 2884 ;
2925 [label="MOB5P <= 5.5\ngini = 0.01\nsamples = 10882\nvalue = [567532.77, 1466.67]\nclass = False", fillcolor="#e5813a"] ;
2239 -> 2925 ;
2926 [label="CFINCP <= 5.5\ngini = 0.0\nsamples = 10208\nvalue = [531966.13, 1200.0]\nclass = False", fillcolor="#e58139"] ;
2925 -> 2926 ;
2927 [label="CFSIZEP <= 2.5\ngini = 0.02\nsamples = 260\nvalue = [13999.99, 133.33]\nclass = False", fillcolor="#e5823b"] ;
2926 -> 2927 ;
2928 [label="(...)", fillcolor="#C0C0C0"] ;
2927 -> 2928 ;
2945 [label="(...)", fillcolor="#C0C0C0"] ;
2927 -> 2945 ;
2946 [label="BNFNMEMP <= 1.5\ngini = 0.0\nsamples = 9948\nvalue = [517966.15, 1066.67]\nclass = False", fillcolor="#e58139"] ;
2926 -> 2946 ;
2947 [label="(...)", fillcolor="#C0C0C0"] ;
2946 -> 2947 ;
2952 [label="(...)", fillcolor="#C0C0C0"] ;
2946 -> 2952 ;
3143 [label="LSTWKP <= 3.5\ngini = 0.01\nsamples = 674\nvalue = [35566.63, 266.67]\nclass = False", fillcolor="#e5823a"] ;
2925 -> 3143 ;
3144 [label="DGREEP <= 2.5\ngini = 0.04\nsamples = 176\nvalue = [9166.66, 166.67]\nclass = False", fillcolor="#e5833d"] ;
3143 -> 3144 ;
3145 [label="(...)", fillcolor="#C0C0C0"] ;
3144 -> 3145 ;
3162 [label="(...)", fillcolor="#C0C0C0"] ;
3144 -> 3162 ;
3163 [label="EFSIZEP <= 4.5\ngini = 0.01\nsamples = 498\nvalue = [26399.97, 100.0]\nclass = False", fillcolor="#e5813a"] ;
3143 -> 3163 ;
3164 [label="(...)", fillcolor="#C0C0C0"] ;
3163 -> 3164 ;
3165 [label="(...)", fillcolor="#C0C0C0"] ;
3163 -> 3165 ;
3170 [label="LFACTP <= 56.0\ngini = 0.23\nsamples = 216615\nvalue = [9949590.05, 1483131.85]\nclass = False", fillcolor="#e99457"] ;
0 -> 3170 [labeldistance=2.5, labelangle=-45, headlabel="False"] ;
3171 [label="CFSTATP <= 1.5\ngini = 0.26\nsamples = 164769\nvalue = [7345259.32, 1350898.65]\nclass = False", fillcolor="#ea985d"] ;
3170 -> 3171 ;
3172 [label="IMMPOPP <= 1.5\ngini = 0.3\nsamples = 44351\nvalue = [1902331.43, 438599.56]\nclass = False", fillcolor="#eb9e67"] ;
3171 -> 3172 ;
3173 [label="AGEP <= 7.5\ngini = 0.18\nsamples = 28041\nvalue = [1332165.33, 145266.52]\nclass = False", fillcolor="#e88f4f"] ;
3172 -> 3173 ;
3174 [label="CMAPUMFP <= 480.5\ngini = 0.14\nsamples = 20775\nvalue = [1010798.99, 84233.25]\nclass = False", fillcolor="#e78c4a"] ;
3173 -> 3174 ;
3175 [label="(...)", fillcolor="#C0C0C0"] ;
3174 -> 3175 ;
3608 [label="(...)", fillcolor="#C0C0C0"] ;
3174 -> 3608 ;
8893 [label="POBP <= 5.5\ngini = 0.27\nsamples = 7266\nvalue = [321366.35, 61033.27]\nclass = False", fillcolor="#ea995f"] ;
3173 -> 8893 ;
8894 [label="(...)", fillcolor="#C0C0C0"] ;
8893 -> 8894 ;
9801 [label="(...)", fillcolor="#C0C0C0"] ;
8893 -> 9801 ;
12082 [label="TENURP <= 1.5\ngini = 0.45\nsamples = 16310\nvalue = [570166.1, 293333.04]\nclass = False", fillcolor="#f2c29f"] ;
3172 -> 12082 ;
12083 [label="CMAPUMFP <= 967.0\ngini = 0.47\nsamples = 12542\nvalue = [419066.25, 244866.42]\nclass = False", fillcolor="#f4cbad"] ;
12082 -> 12083 ;
12084 [label="(...)", fillcolor="#C0C0C0"] ;
12083 -> 12084 ;
19307 [label="(...)", fillcolor="#C0C0C0"] ;
12083 -> 19307 ;
20858 [label="UNITSP <= 2.5\ngini = 0.37\nsamples = 3768\nvalue = [151099.85, 48466.62]\nclass = False", fillcolor="#eda979"] ;
12082 -> 20858 ;
20859 [label="(...)", fillcolor="#C0C0C0"] ;
20858 -> 20859 ;
21674 [label="(...)", fillcolor="#C0C0C0"] ;
20858 -> 21674 ;
23159 [label="MARSTLP <= 4.5\ngini = 0.25\nsamples = 120418\nvalue = [5442927.89, 912299.09]\nclass = False", fillcolor="#e9965a"] ;
3171 -> 23159 ;
23160 [label="VALUEP <= 47.0\ngini = 0.24\nsamples = 112058\nvalue = [5096128.24, 813299.19]\nclass = False", fillcolor="#e99559"] ;
23159 -> 23160 ;
23161 [label="CMAPUMFP <= 934.0\ngini = 0.25\nsamples = 70304\nvalue = [3160263.51, 552366.11]\nclass = False", fillcolor="#ea975c"] ;
23160 -> 23161 ;
23162 [label="(...)", fillcolor="#C0C0C0"] ;
23161 -> 23162 ;
43639 [label="(...)", fillcolor="#C0C0C0"] ;
23161 -> 43639 ;
49832 [label="CITIZENP <= 1.5\ngini = 0.21\nsamples = 41754\nvalue = [1935864.73, 260933.07]\nclass = False", fillcolor="#e99254"] ;
23160 -> 49832 ;
49833 [label="(...)", fillcolor="#C0C0C0"] ;
49832 -> 49833 ;
57162 [label="(...)", fillcolor="#C0C0C0"] ;
49832 -> 57162 ;
63859 [label="POBP <= 5.5\ngini = 0.35\nsamples = 8360\nvalue = [346799.65, 98999.9]\nclass = False", fillcolor="#eca572"] ;
23159 -> 63859 ;
63860 [label="VALUEP <= 47.0\ngini = 0.13\nsamples = 2347\nvalue = [116599.88, 8433.32]\nclass = False", fillcolor="#e78a47"] ;
63859 -> 63860 ;
63861 [label="(...)", fillcolor="#C0C0C0"] ;
63860 -> 63861 ;
64252 [label="(...)", fillcolor="#C0C0C0"] ;
63860 -> 64252 ;
64475 [label="TOTINCP <= 1.5\ngini = 0.41\nsamples = 6013\nvalue = [230199.77, 90566.58]\nclass = False", fillcolor="#efb387"] ;
63859 -> 64475 ;
64476 [label="(...)", fillcolor="#C0C0C0"] ;
64475 -> 64476 ;
64733 [label="(...)", fillcolor="#C0C0C0"] ;
64475 -> 64733 ;
68332 [label="ABETHNCP <= 4.5\ngini = 0.09\nsamples = 51846\nvalue = [2604330.73, 132233.2]\nclass = False", fillcolor="#e68743"] ;
3170 -> 68332 ;
68333 [label="ABETHNCP <= 2.5\ngini = 0.05\nsamples = 5172\nvalue = [267633.07, 6599.99]\nclass = False", fillcolor="#e6843e"] ;
68332 -> 68333 ;
68334 [label="UNITSP <= 4.5\ngini = 0.09\nsamples = 2199\nvalue = [111299.89, 5366.66]\nclass = False", fillcolor="#e68743"] ;
68333 -> 68334 ;
68335 [label="REGINP <= 1.5\ngini = 0.07\nsamples = 786\nvalue = [41299.96, 1533.33]\nclass = False", fillcolor="#e68640"] ;
68334 -> 68335 ;
68336 [label="(...)", fillcolor="#C0C0C0"] ;
68335 -> 68336 ;
68497 [label="(...)", fillcolor="#C0C0C0"] ;
68335 -> 68497 ;
68528 [label="INCSTP <= 1.5\ngini = 0.1\nsamples = 1413\nvalue = [69999.93, 3833.33]\nclass = False", fillcolor="#e68844"] ;
68334 -> 68528 ;
68529 [label="(...)", fillcolor="#C0C0C0"] ;
68528 -> 68529 ;
68688 [label="(...)", fillcolor="#C0C0C0"] ;
68528 -> 68688 ;
68945 [label="PROVP <= 59.5\ngini = 0.02\nsamples = 2973\nvalue = [156333.18, 1233.33]\nclass = False", fillcolor="#e5823b"] ;
68333 -> 68945 ;
68946 [label="PROV1P <= 8.5\ngini = 0.01\nsamples = 2914\nvalue = [153433.18, 1000.0]\nclass = False", fillcolor="#e5823a"] ;
68945 -> 68946 ;
68947 [label="(...)", fillcolor="#C0C0C0"] ;
68946 -> 68947 ;
68952 [label="(...)", fillcolor="#C0C0C0"] ;
68946 -> 68952 ;
69069 [label="CONDWELP <= 2.5\ngini = 0.14\nsamples = 59\nvalue = [2900.0, 233.33]\nclass = False", fillcolor="#e78b49"] ;
68945 -> 69069 ;
69070 [label="(...)", fillcolor="#C0C0C0"] ;
69069 -> 69070 ;
69083 [label="(...)", fillcolor="#C0C0C0"] ;
69069 -> 69083 ;
69092 [label="CITIZENP <= 1.5\ngini = 0.1\nsamples = 46674\nvalue = [2336697.66, 125633.21]\nclass = False", fillcolor="#e68844"] ;
68332 -> 69092 ;
69093 [label="RCONDP <= 5.5\ngini = 0.08\nsamples = 43318\nvalue = [2191031.14, 95699.9]\nclass = False", fillcolor="#e68742"] ;
69092 -> 69093 ;
69094 [label="EFSIZEP <= 4.5\ngini = 0.09\nsamples = 31098\nvalue = [1566398.43, 76133.26]\nclass = False", fillcolor="#e68743"] ;
69093 -> 69094 ;
69095 [label="(...)", fillcolor="#C0C0C0"] ;
69094 -> 69095 ;
72604 [label="(...)", fillcolor="#C0C0C0"] ;
69094 -> 72604 ;
76033 [label="ROOMP <= 6.5\ngini = 0.06\nsamples = 12220\nvalue = [624632.71, 19566.65]\nclass = False", fillcolor="#e6853f"] ;
69093 -> 76033 ;
76034 [label="(...)", fillcolor="#C0C0C0"] ;
76033 -> 76034 ;
77689 [label="(...)", fillcolor="#C0C0C0"] ;
76033 -> 77689 ;
78156 [label="MOB1P <= 1.5\ngini = 0.28\nsamples = 3356\nvalue = [145666.52, 29933.3]\nclass = False", fillcolor="#ea9b62"] ;
69092 -> 78156 ;
78157 [label="HTYPEP <= 9.5\ngini = 0.31\nsamples = 2162\nvalue = [90533.24, 21766.64]\nclass = False", fillcolor="#eb9f69"] ;
78156 -> 78157 ;
78158 [label="(...)", fillcolor="#C0C0C0"] ;
78157 -> 78158 ;
79399 [label="(...)", fillcolor="#C0C0C0"] ;
78157 -> 79399 ;
79532 [label="POBP <= 11.5\ngini = 0.22\nsamples = 1194\nvalue = [55133.28, 8166.66]\nclass = False", fillcolor="#e99456"] ;
78156 -> 79532 ;
79533 [label="(...)", fillcolor="#C0C0C0"] ;
79532 -> 79533 ;
79548 [label="(...)", fillcolor="#C0C0C0"] ;
79532 -> 79548 ;
}