digraph Tree {
node [shape=box, style="filled, rounded", color="black", fontname=helvetica] ;
edge [fontname=helvetica] ;
0 [label="VisMin <= 12.5\ngini = 0.31\nsamples = 179353\nvalue = [8507357.46, 2022995.22]\nclass = False", fillcolor="#eb9f68"] ;
1 [label="IMMCAT5 <= 2.5\ngini = 0.39\nsamples = 60966\nvalue = [2617747.48, 960727.46]\nclass = False", fillcolor="#efaf82"] ;
0 -> 1 [labeldistance=2.5, labelangle=45, headlabel="True"] ;
2 [label="WRKACT <= 55.5\ngini = 0.45\nsamples = 15034\nvalue = [574713.02, 305519.1]\nclass = False", fillcolor="#f3c4a2"] ;
1 -> 2 ;
3 [label="AGEGRP <= 15.5\ngini = 0.49\nsamples = 8429\nvalue = [273560.77, 218778.39]\nclass = False", fillcolor="#fae6d7"] ;
2 -> 3 ;
4 [label="CMA <= 502.0\ngini = 0.5\nsamples = 5655\nvalue = [162524.69, 169000.7]\nclass = True", fillcolor="#f7fbfe"] ;
3 -> 4 ;
5 [label="VisMin <= 3.5\ngini = 0.42\nsamples = 1447\nvalue = [58562.67, 25780.84]\nclass = False", fillcolor="#f0b890"] ;
4 -> 5 ;
6 [label="(...)", fillcolor="#C0C0C0"] ;
5 -> 6 ;
437 [label="(...)", fillcolor="#C0C0C0"] ;
5 -> 437 ;
872 [label="CIP2011_STEM_SUM <= 10.5\ngini = 0.49\nsamples = 4208\nvalue = [103962.02, 143219.86]\nclass = True", fillcolor="#c9e4f8"] ;
4 -> 872 ;
873 [label="(...)", fillcolor="#C0C0C0"] ;
872 -> 873 ;
2100 [label="(...)", fillcolor="#C0C0C0"] ;
872 -> 2100 ;
3733 [label="POBF <= 5.5\ngini = 0.43\nsamples = 2774\nvalue = [111036.08, 49777.69]\nclass = False", fillcolor="#f1b992"] ;
3 -> 3733 ;
3734 [label="CIP2011_STEM_SUM <= 9.5\ngini = 0.4\nsamples = 2415\nvalue = [100369.48, 39074.28]\nclass = False", fillcolor="#efb286"] ;
3733 -> 3734 ;
3735 [label="(...)", fillcolor="#C0C0C0"] ;
3734 -> 3735 ;
4492 [label="(...)", fillcolor="#C0C0C0"] ;
3734 -> 4492 ;
5221 [label="SSGRAD <= 4.5\ngini = 0.5\nsamples = 359\nvalue = [10666.6, 10703.41]\nclass = True", fillcolor="#feffff"] ;
3733 -> 5221 ;
5222 [label="(...)", fillcolor="#C0C0C0"] ;
5221 -> 5222 ;
5329 [label="(...)", fillcolor="#C0C0C0"] ;
5221 -> 5329 ;
5490 [label="PKID0_1 <= 0.5\ngini = 0.35\nsamples = 6605\nvalue = [301152.25, 86740.71]\nclass = False", fillcolor="#eca572"] ;
2 -> 5490 ;
5491 [label="REPAIR <= 2.5\ngini = 0.38\nsamples = 4731\nvalue = [209484.99, 70296.31]\nclass = False", fillcolor="#eeab7b"] ;
5490 -> 5491 ;
5492 [label="CMA <= 502.0\ngini = 0.38\nsamples = 4487\nvalue = [198114.03, 67148.06]\nclass = False", fillcolor="#eeac7c"] ;
5491 -> 5492 ;
5493 [label="(...)", fillcolor="#C0C0C0"] ;
5492 -> 5493 ;
6200 [label="(...)", fillcolor="#C0C0C0"] ;
5492 -> 6200 ;
8587 [label="EfDIMBM <= 12.5\ngini = 0.34\nsamples = 244\nvalue = [11370.95, 3148.25]\nclass = False", fillcolor="#eca470"] ;
5491 -> 8587 ;
8588 [label="(...)", fillcolor="#C0C0C0"] ;
8587 -> 8588 ;
8645 [label="(...)", fillcolor="#C0C0C0"] ;
8587 -> 8645 ;
8728 [label="ETHDER <= 43.5\ngini = 0.26\nsamples = 1874\nvalue = [91667.27, 16444.4]\nclass = False", fillcolor="#ea985d"] ;
5490 -> 8728 ;
8729 [label="HHInc_AT <= 14.5\ngini = 0.24\nsamples = 1569\nvalue = [77889.06, 12703.48]\nclass = False", fillcolor="#e99659"] ;
8728 -> 8729 ;
8730 [label="(...)", fillcolor="#C0C0C0"] ;
8729 -> 8730 ;
9035 [label="(...)", fillcolor="#C0C0C0"] ;
8729 -> 9035 ;
9540 [label="EFInc_AT <= 18.5\ngini = 0.34\nsamples = 305\nvalue = [13778.2, 3740.92]\nclass = False", fillcolor="#eca36f"] ;
8728 -> 9540 ;
9541 [label="(...)", fillcolor="#C0C0C0"] ;
9540 -> 9541 ;
9626 [label="(...)", fillcolor="#C0C0C0"] ;
9540 -> 9626 ;
9739 [label="LOC_ST_RES <= 2.5\ngini = 0.37\nsamples = 45932\nvalue = [2043034.46, 655208.36]\nclass = False", fillcolor="#eda978"] ;
1 -> 9739 ;
9740 [label="VisMin <= 2.5\ngini = 0.47\nsamples = 9527\nvalue = [352220.15, 206406.97]\nclass = False", fillcolor="#f4cbad"] ;
9739 -> 9740 ;
9741 [label="BedRm <= 1.5\ngini = 0.43\nsamples = 4452\nvalue = [178776.71, 82369.96]\nclass = False", fillcolor="#f1bb94"] ;
9740 -> 9741 ;
9742 [label="PKID2_5 <= 4.5\ngini = 0.49\nsamples = 488\nvalue = [15444.77, 12259.44]\nclass = False", fillcolor="#fae5d6"] ;
9741 -> 9742 ;
9743 [label="(...)", fillcolor="#C0C0C0"] ;
9742 -> 9743 ;
9902 [label="(...)", fillcolor="#C0C0C0"] ;
9742 -> 9902 ;
10079 [label="EFDecile <= 7.5\ngini = 0.42\nsamples = 3964\nvalue = [163331.94, 70110.52]\nclass = False", fillcolor="#f0b78e"] ;
9741 -> 10079 ;
10080 [label="(...)", fillcolor="#C0C0C0"] ;
10079 -> 10080 ;
11673 [label="(...)", fillcolor="#C0C0C0"] ;
10079 -> 11673 ;
12674 [label="EfSize <= 2.5\ngini = 0.49\nsamples = 5075\nvalue = [173443.44, 124037.01]\nclass = False", fillcolor="#f8dbc7"] ;
9740 -> 12674 ;
12675 [label="CFInc <= 17.5\ngini = 0.5\nsamples = 1635\nvalue = [49926.12, 45926.12]\nclass = False", fillcolor="#fdf5ef"] ;
12674 -> 12675 ;
12676 [label="(...)", fillcolor="#C0C0C0"] ;
12675 -> 12676 ;
13445 [label="(...)", fillcolor="#C0C0C0"] ;
12675 -> 13445 ;
13914 [label="DPGRSUM <= 5.5\ngini = 0.47\nsamples = 3440\nvalue = [123517.31, 78110.88]\nclass = False", fillcolor="#f5d1b6"] ;
12674 -> 13914 ;
13915 [label="(...)", fillcolor="#C0C0C0"] ;
13914 -> 13915 ;
14898 [label="(...)", fillcolor="#C0C0C0"] ;
13914 -> 14898 ;
16369 [label="MarStH <= 1.5\ngini = 0.33\nsamples = 36405\nvalue = [1690814.31, 448801.4]\nclass = False", fillcolor="#eca26e"] ;
9739 -> 16369 ;
16370 [label="COW <= 7.0\ngini = 0.39\nsamples = 9582\nvalue = [413546.19, 151773.11]\nclass = False", fillcolor="#efaf82"] ;
16369 -> 16370 ;
16371 [label="PKID2_5 <= 8.5\ngini = 0.44\nsamples = 3668\nvalue = [145883.63, 70331.08]\nclass = False", fillcolor="#f2be98"] ;
16370 -> 16371 ;
16372 [label="(...)", fillcolor="#C0C0C0"] ;
16371 -> 16372 ;
17649 [label="(...)", fillcolor="#C0C0C0"] ;
16371 -> 17649 ;
18826 [label="EfDIMBM <= 20.5\ngini = 0.36\nsamples = 5914\nvalue = [267662.56, 81442.03]\nclass = False", fillcolor="#eda775"] ;
16370 -> 18826 ;
18827 [label="(...)", fillcolor="#C0C0C0"] ;
18826 -> 18827 ;
21784 [label="(...)", fillcolor="#C0C0C0"] ;
18826 -> 21784 ;
22563 [label="DPGRSUM <= 3.5\ngini = 0.31\nsamples = 26823\nvalue = [1277268.12, 297028.29]\nclass = False", fillcolor="#eb9e67"] ;
16369 -> 22563 ;
22564 [label="CFInc_AT <= 22.5\ngini = 0.22\nsamples = 14421\nvalue = [739738.44, 106184.45]\nclass = False", fillcolor="#e99355"] ;
22563 -> 22564 ;
22565 [label="(...)", fillcolor="#C0C0C0"] ;
22564 -> 22565 ;
26724 [label="(...)", fillcolor="#C0C0C0"] ;
22564 -> 26724 ;
28299 [label="IMMCAT5 <= 22.5\ngini = 0.39\nsamples = 12402\nvalue = [537529.68, 190843.84]\nclass = False", fillcolor="#eeae7f"] ;
22563 -> 28299 ;
28300 [label="(...)", fillcolor="#C0C0C0"] ;
28299 -> 28300 ;
34587 [label="(...)", fillcolor="#C0C0C0"] ;
28299 -> 34587 ;
35808 [label="GENSTAT <= 2.5\ngini = 0.26\nsamples = 118387\nvalue = [5889609.98, 1062267.76]\nclass = False", fillcolor="#ea985d"] ;
0 -> 35808 [labeldistance=2.5, labelangle=-45, headlabel="False"] ;
35809 [label="HDGREE <= 9.5\ngini = 0.5\nsamples = 31008\nvalue = [921415.7, 900319.66]\nclass = False", fillcolor="#fefcfa"] ;
35808 -> 35809 ;
35810 [label="POBF <= 3.5\ngini = 0.5\nsamples = 24436\nvalue = [673894.66, 762690.74]\nclass = True", fillcolor="#e8f4fc"] ;
35809 -> 35810 ;
35811 [label="IMMCAT5 <= 1.5\ngini = 0.49\nsamples = 19019\nvalue = [486745.02, 632507.59]\nclass = True", fillcolor="#d1e8f9"] ;
35810 -> 35811 ;
35812 [label="LSTWRK <= 3.5\ngini = 0.29\nsamples = 4383\nvalue = [46260.86, 211403.18]\nclass = True", fillcolor="#64b2eb"] ;
35811 -> 35812 ;
35813 [label="(...)", fillcolor="#C0C0C0"] ;
35812 -> 35813 ;
37628 [label="(...)", fillcolor="#C0C0C0"] ;
35812 -> 37628 ;
37797 [label="EfDIMBM <= 18.5\ngini = 0.5\nsamples = 14636\nvalue = [440484.16, 421104.41]\nclass = False", fillcolor="#fef9f6"] ;
35811 -> 37797 ;
37798 [label="(...)", fillcolor="#C0C0C0"] ;
37797 -> 37798 ;
44043 [label="(...)", fillcolor="#C0C0C0"] ;
37797 -> 44043 ;
47434 [label="CFInc <= 25.5\ngini = 0.48\nsamples = 5417\nvalue = [187149.64, 130183.15]\nclass = False", fillcolor="#f7d9c3"] ;
35810 -> 47434 ;
47435 [label="POBM <= 7.0\ngini = 0.47\nsamples = 4101\nvalue = [148298.12, 91629.19]\nclass = False", fillcolor="#f5cfb3"] ;
47434 -> 47435 ;
47436 [label="(...)", fillcolor="#C0C0C0"] ;
47435 -> 47436 ;
48521 [label="(...)", fillcolor="#C0C0C0"] ;
47435 -> 48521 ;
50102 [label="PR1 <= 29.5\ngini = 0.5\nsamples = 1316\nvalue = [38851.52, 38553.96]\nclass = False", fillcolor="#fffefd"] ;
47434 -> 50102 ;
50103 [label="(...)", fillcolor="#C0C0C0"] ;
50102 -> 50103 ;
50378 [label="(...)", fillcolor="#C0C0C0"] ;
50102 -> 50378 ;
51011 [label="PR <= 29.5\ngini = 0.46\nsamples = 6572\nvalue = [247521.04, 137628.93]\nclass = False", fillcolor="#f3c7a7"] ;
35809 -> 51011 ;
51012 [label="SSGRAD <= 93.5\ngini = 0.36\nsamples = 2248\nvalue = [100272.75, 30226.14]\nclass = False", fillcolor="#eda775"] ;
51011 -> 51012 ;
51013 [label="IMMSTAT <= 1.5\ngini = 0.4\nsamples = 1265\nvalue = [53599.52, 20447.11]\nclass = False", fillcolor="#efb185"] ;
51012 -> 51013 ;
51014 [label="(...)", fillcolor="#C0C0C0"] ;
51013 -> 51014 ;
51087 [label="(...)", fillcolor="#C0C0C0"] ;
51013 -> 51087 ;
51688 [label="HHInc_AT <= 26.5\ngini = 0.29\nsamples = 983\nvalue = [46673.24, 9779.03]\nclass = False", fillcolor="#ea9b62"] ;
51012 -> 51688 ;
51689 [label="(...)", fillcolor="#C0C0C0"] ;
51688 -> 51689 ;
52206 [label="(...)", fillcolor="#C0C0C0"] ;
51688 -> 52206 ;
52223 [label="SSGRAD <= 93.5\ngini = 0.49\nsamples = 4324\nvalue = [147248.29, 107402.79]\nclass = False", fillcolor="#f8ddc9"] ;
51011 -> 52223 ;
52224 [label="CitOth <= 12.5\ngini = 0.5\nsamples = 2951\nvalue = [91180.92, 83738.18]\nclass = False", fillcolor="#fdf5ef"] ;
52223 -> 52224 ;
52225 [label="(...)", fillcolor="#C0C0C0"] ;
52224 -> 52225 ;
52950 [label="(...)", fillcolor="#C0C0C0"] ;
52224 -> 52950 ;
54119 [label="Mob5 <= 2.5\ngini = 0.42\nsamples = 1373\nvalue = [56067.36, 23664.6]\nclass = False", fillcolor="#f0b68d"] ;
52223 -> 54119 ;
54120 [label="(...)", fillcolor="#C0C0C0"] ;
54119 -> 54120 ;
54637 [label="(...)", fillcolor="#C0C0C0"] ;
54119 -> 54637 ;
55094 [label="PR <= 40.5\ngini = 0.06\nsamples = 87379\nvalue = [4968194.28, 161948.1]\nclass = False", fillcolor="#e6853f"] ;
35808 -> 55094 ;
55095 [label="SSGRAD <= 50.0\ngini = 0.03\nsamples = 82902\nvalue = [4796196.34, 70671.08]\nclass = False", fillcolor="#e5833c"] ;
55094 -> 55095 ;
55096 [label="PR1 <= 29.5\ngini = 0.02\nsamples = 69780\nvalue = [4044064.82, 49521.51]\nclass = False", fillcolor="#e5833b"] ;
55095 -> 55096 ;
55097 [label="ABOID <= 1.5\ngini = 0.01\nsamples = 64167\nvalue = [3742542.31, 23076.86]\nclass = False", fillcolor="#e5823a"] ;
55096 -> 55097 ;
55098 [label="(...)", fillcolor="#C0C0C0"] ;
55097 -> 55098 ;
55321 [label="(...)", fillcolor="#C0C0C0"] ;
55097 -> 55321 ;
56664 [label="GENSTAT <= 3.5\ngini = 0.15\nsamples = 5613\nvalue = [301522.51, 26444.65]\nclass = False", fillcolor="#e78c4a"] ;
55096 -> 56664 ;
56665 [label="(...)", fillcolor="#C0C0C0"] ;
56664 -> 56665 ;
56840 [label="(...)", fillcolor="#C0C0C0"] ;
56664 -> 56840 ;
57625 [label="GENSTAT <= 3.5\ngini = 0.05\nsamples = 13122\nvalue = [752131.52, 21149.57]\nclass = False", fillcolor="#e6853f"] ;
55095 -> 57625 ;
57626 [label="CitOth <= 3.0\ngini = 0.29\nsamples = 910\nvalue = [43930.82, 9482.06]\nclass = False", fillcolor="#eb9c64"] ;
57625 -> 57626 ;
57627 [label="(...)", fillcolor="#C0C0C0"] ;
57626 -> 57627 ;
57642 [label="(...)", fillcolor="#C0C0C0"] ;
57626 -> 57642 ;
58019 [label="EFInc <= 3.5\ngini = 0.03\nsamples = 12212\nvalue = [708200.69, 11667.51]\nclass = False", fillcolor="#e5833c"] ;
57625 -> 58019 ;
58020 [label="(...)", fillcolor="#C0C0C0"] ;
58019 -> 58020 ;
58029 [label="(...)", fillcolor="#C0C0C0"] ;
58019 -> 58029 ;
58720 [label="REGIND <= 0.5\ngini = 0.45\nsamples = 4477\nvalue = [171997.94, 91277.01]\nclass = False", fillcolor="#f3c4a2"] ;
55094 -> 58720 ;
58721 [label="ETHDER <= 8.5\ngini = 0.42\nsamples = 3392\nvalue = [138707.94, 58727.37]\nclass = False", fillcolor="#f0b68d"] ;
58720 -> 58721 ;
58722 [label="ETHDER <= 1.5\ngini = 0.19\nsamples = 1331\nvalue = [68726.83, 8332.14]\nclass = False", fillcolor="#e89051"] ;
58721 -> 58722 ;
58723 [label="(...)", fillcolor="#C0C0C0"] ;
58722 -> 58723 ;
58938 [label="(...)", fillcolor="#C0C0C0"] ;
58722 -> 58938 ;
59109 [label="SHELCO <= 4.5\ngini = 0.49\nsamples = 2061\nvalue = [69981.11, 50395.23]\nclass = False", fillcolor="#f8dcc8"] ;
58721 -> 59109 ;
59110 [label="(...)", fillcolor="#C0C0C0"] ;
59109 -> 59110 ;
59803 [label="(...)", fillcolor="#C0C0C0"] ;
59109 -> 59803 ;
60284 [label="NOS <= 0.5\ngini = 0.5\nsamples = 1085\nvalue = [33290.0, 32549.64]\nclass = False", fillcolor="#fefcfb"] ;
58720 -> 60284 ;
60285 [label="PR <= 53.5\ngini = 0.45\nsamples = 422\nvalue = [16737.91, 8702.16]\nclass = False", fillcolor="#f3c3a0"] ;
60284 -> 60285 ;
60286 [label="(...)", fillcolor="#C0C0C0"] ;
60285 -> 60286 ;
60571 [label="(...)", fillcolor="#C0C0C0"] ;
60285 -> 60571 ;
60586 [label="PKID6_14 <= 0.5\ngini = 0.48\nsamples = 663\nvalue = [16552.1, 23847.48]\nclass = True", fillcolor="#c2e1f7"] ;
60284 -> 60586 ;
60587 [label="(...)", fillcolor="#C0C0C0"] ;
60586 -> 60587 ;
60812 [label="(...)", fillcolor="#C0C0C0"] ;
60586 -> 60812 ;
}