digraph Tree {
node [shape=box, style="filled, rounded", color="black", fontname=helvetica] ;
edge [fontname=helvetica] ;
0 [label="NOL <= 1.5\ngini = 0.19\nsamples = 930421\nvalue = [30790228.218, 3669835.782]\nclass = False", fillcolor="#e58139e1"] ;
1 [label="GENSTAT <= 2.5\ngini = 0.02\nsamples = 677138\nvalue = [24824072.239, 255320.541]\nclass = False", fillcolor="#e58139fc"] ;
0 -> 1 [labeldistance=2.5, labelangle=45, headlabel="True"] ;
2 [label="POB <= 9.5\ngini = 0.108\nsamples = 90597\nvalue = [3163765.531, 191622.105]\nclass = False", fillcolor="#e58139f0"] ;
1 -> 2 ;
3 [label="GENSTAT <= 1.5\ngini = 0.081\nsamples = 75084\nvalue = [2663252.806, 117588.262]\nclass = False", fillcolor="#e58139f4"] ;
2 -> 3 ;
4 [label="POB <= 7.5\ngini = 0.023\nsamples = 31599\nvalue = [1156514.746, 13814.506]\nclass = False", fillcolor="#e58139fc"] ;
3 -> 4 ;
5 [label="FOL <= 1.5\ngini = 0.015\nsamples = 28332\nvalue = [1041469.417, 7851.784]\nclass = False", fillcolor="#e58139fd"] ;
4 -> 5 ;
6 [label="(...)", fillcolor="#C0C0C0"] ;
5 -> 6 ;
635 [label="(...)", fillcolor="#C0C0C0"] ;
5 -> 635 ;
728 [label="KOL <= 1.5\ngini = 0.094\nsamples = 3267\nvalue = [115045.328, 5962.722]\nclass = False", fillcolor="#e58139f2"] ;
4 -> 728 ;
729 [label="(...)", fillcolor="#C0C0C0"] ;
728 -> 729 ;
902 [label="(...)", fillcolor="#C0C0C0"] ;
728 -> 902 ;
959 [label="POBM <= 2.5\ngini = 0.121\nsamples = 43485\nvalue = [1506738.06, 103773.756]\nclass = False", fillcolor="#e58139ed"] ;
3 -> 959 ;
960 [label="CMA <= 600.5\ngini = 0.029\nsamples = 7362\nvalue = [268590.192, 4073.914]\nclass = False", fillcolor="#e58139fb"] ;
959 -> 960 ;
961 [label="(...)", fillcolor="#C0C0C0"] ;
960 -> 961 ;
1180 [label="(...)", fillcolor="#C0C0C0"] ;
960 -> 1180 ;
1329 [label="ETHDER <= 8.5\ngini = 0.138\nsamples = 36123\nvalue = [1238147.868, 99699.842]\nclass = False", fillcolor="#e58139ea"] ;
959 -> 1329 ;
1330 [label="(...)", fillcolor="#C0C0C0"] ;
1329 -> 1330 ;
1497 [label="(...)", fillcolor="#C0C0C0"] ;
1329 -> 1497 ;
7182 [label="POBF <= 5.5\ngini = 0.225\nsamples = 15513\nvalue = [500512.725, 74033.844]\nclass = False", fillcolor="#e58139d9"] ;
2 -> 7182 ;
7183 [label="ETHDER <= 8.5\ngini = 0.35\nsamples = 6012\nvalue = [172218.291, 50442.06]\nclass = False", fillcolor="#e58139b4"] ;
7182 -> 7183 ;
7184 [label="VisMin <= 1.5\ngini = 0.022\nsamples = 640\nvalue = [23443.626, 259.23]\nclass = False", fillcolor="#e58139fc"] ;
7183 -> 7184 ;
7185 [label="(...)", fillcolor="#C0C0C0"] ;
7184 -> 7185 ;
7190 [label="(...)", fillcolor="#C0C0C0"] ;
7184 -> 7190 ;
7211 [label="FOL <= 1.5\ngini = 0.377\nsamples = 5372\nvalue = [148774.665, 50182.83]\nclass = False", fillcolor="#e58139a9"] ;
7183 -> 7211 ;
7212 [label="(...)", fillcolor="#C0C0C0"] ;
7211 -> 7212 ;
8915 [label="(...)", fillcolor="#C0C0C0"] ;
7211 -> 8915 ;
8972 [label="AGEIMM <= 4.5\ngini = 0.125\nsamples = 9501\nvalue = [328294.434, 23591.784]\nclass = False", fillcolor="#e58139ed"] ;
7182 -> 8972 ;
8973 [label="IMMCAT5 <= 22.5\ngini = 0.177\nsamples = 4420\nvalue = [147590.194, 16110.273]\nclass = False", fillcolor="#e58139e3"] ;
8972 -> 8973 ;
8974 [label="(...)", fillcolor="#C0C0C0"] ;
8973 -> 8974 ;
9703 [label="(...)", fillcolor="#C0C0C0"] ;
8973 -> 9703 ;
9892 [label="DETH123 <= 1.5\ngini = 0.076\nsamples = 5081\nvalue = [180704.24, 7481.511]\nclass = False", fillcolor="#e58139f4"] ;
8972 -> 9892 ;
9893 [label="(...)", fillcolor="#C0C0C0"] ;
9892 -> 9893 ;
10334 [label="(...)", fillcolor="#C0C0C0"] ;
9892 -> 10334 ;
10445 [label="BFNMEMB <= 0.5\ngini = 0.006\nsamples = 586541\nvalue = [21660306.708, 63698.436]\nclass = False", fillcolor="#e58139fe"] ;
1 -> 10445 ;
10446 [label="GENSTAT <= 3.5\ngini = 0.005\nsamples = 571394\nvalue = [21109675.742, 53365.899]\nclass = False", fillcolor="#e58139fe"] ;
10445 -> 10446 ;
10447 [label="DETH123 <= 1.5\ngini = 0.018\nsamples = 64105\nvalue = [2352317.221, 21887.556]\nclass = False", fillcolor="#e58139fd"] ;
10446 -> 10447 ;
10448 [label="ETHDER <= 9.5\ngini = 0.04\nsamples = 18317\nvalue = [664694.857, 13702.683]\nclass = False", fillcolor="#e58139fa"] ;
10447 -> 10448 ;
10449 [label="(...)", fillcolor="#C0C0C0"] ;
10448 -> 10449 ;
10574 [label="(...)", fillcolor="#C0C0C0"] ;
10448 -> 10574 ;
11421 [label="ETHDER <= 47.5\ngini = 0.01\nsamples = 45788\nvalue = [1687622.364, 8184.873]\nclass = False", fillcolor="#e58139fe"] ;
10447 -> 11421 ;
11422 [label="(...)", fillcolor="#C0C0C0"] ;
11421 -> 11422 ;
11979 [label="(...)", fillcolor="#C0C0C0"] ;
11421 -> 11979 ;
12358 [label="PR1 <= 40.5\ngini = 0.003\nsamples = 507289\nvalue = [18757358.521, 31478.343]\nclass = False", fillcolor="#e58139ff"] ;
10446 -> 12358 ;
12359 [label="VisMin <= 2.5\ngini = 0.002\nsamples = 356779\nvalue = [13204315.859, 10926.349]\nclass = False", fillcolor="#e58139ff"] ;
12358 -> 12359 ;
12360 [label="(...)", fillcolor="#C0C0C0"] ;
12359 -> 12360 ;
12413 [label="(...)", fillcolor="#C0C0C0"] ;
12359 -> 12413 ;
13682 [label="OASGI <= 23500.0\ngini = 0.007\nsamples = 150510\nvalue = [5553042.662, 20551.993]\nclass = False", fillcolor="#e58139fe"] ;
12358 -> 13682 ;
13683 [label="(...)", fillcolor="#C0C0C0"] ;
13682 -> 13683 ;
14372 [label="(...)", fillcolor="#C0C0C0"] ;
13682 -> 14372 ;
15747 [label="ETHDER <= 1.5\ngini = 0.036\nsamples = 15147\nvalue = [550630.966, 10332.537]\nclass = False", fillcolor="#e58139fa"] ;
10445 -> 15747 ;
15748 [label="AGEGRP <= 10.5\ngini = 0.055\nsamples = 8117\nvalue = [292160.369, 8443.847]\nclass = False", fillcolor="#e58139f8"] ;
15747 -> 15748 ;
15749 [label="ChldC <= 150.0\ngini = 0.037\nsamples = 5527\nvalue = [200791.145, 3888.525]\nclass = False", fillcolor="#e58139fa"] ;
15748 -> 15749 ;
15750 [label="(...)", fillcolor="#C0C0C0"] ;
15749 -> 15750 ;
15753 [label="(...)", fillcolor="#C0C0C0"] ;
15749 -> 15753 ;
16144 [label="CQPPB <= 5750.0\ngini = 0.09\nsamples = 2590\nvalue = [91369.224, 4555.321]\nclass = False", fillcolor="#e58139f2"] ;
15748 -> 16144 ;
16145 [label="(...)", fillcolor="#C0C0C0"] ;
16144 -> 16145 ;
16200 [label="(...)", fillcolor="#C0C0C0"] ;
16144 -> 16200 ;
16487 [label="HCORENEED_IND <= 494.0\ngini = 0.014\nsamples = 7030\nvalue = [258470.597, 1888.691]\nclass = False", fillcolor="#e58139fd"] ;
15747 -> 16487 ;
16488 [label="AGEGRP <= 11.5\ngini = 0.009\nsamples = 6106\nvalue = [225063.672, 1073.817]\nclass = False", fillcolor="#e58139fe"] ;
16487 -> 16488 ;
16489 [label="(...)", fillcolor="#C0C0C0"] ;
16488 -> 16489 ;
16524 [label="(...)", fillcolor="#C0C0C0"] ;
16488 -> 16524 ;
16607 [label="SHELCO <= 0.5\ngini = 0.046\nsamples = 924\nvalue = [33406.925, 814.873]\nclass = False", fillcolor="#e58139f9"] ;
16487 -> 16607 ;
16608 [label="(...)", fillcolor="#C0C0C0"] ;
16607 -> 16608 ;
16611 [label="(...)", fillcolor="#C0C0C0"] ;
16607 -> 16611 ;
16696 [label="VisMin <= 6.5\ngini = 0.463\nsamples = 253283\nvalue = [5966155.979, 3414515.241]\nclass = False", fillcolor="#e581396d"] ;
0 -> 16696 [labeldistance=2.5, labelangle=-45, headlabel="False"] ;
16697 [label="FOL <= 2.5\ngini = 0.398\nsamples = 127238\nvalue = [3419548.211, 1292855.767]\nclass = False", fillcolor="#e581399f"] ;
16696 -> 16697 ;
16698 [label="POB <= 20.5\ngini = 0.425\nsamples = 111422\nvalue = [2864163.801, 1262447.892]\nclass = False", fillcolor="#e581398f"] ;
16697 -> 16698 ;
16699 [label="NOL <= 57.0\ngini = 0.471\nsamples = 49035\nvalue = [1125974.67, 690101.172]\nclass = False", fillcolor="#e5813963"] ;
16698 -> 16699 ;
16700 [label="LWANO <= 0.5\ngini = 0.476\nsamples = 47848\nvalue = [1082013.834, 690101.172]\nclass = False", fillcolor="#e581395c"] ;
16699 -> 16700 ;
16701 [label="(...)", fillcolor="#C0C0C0"] ;
16700 -> 16701 ;
25348 [label="(...)", fillcolor="#C0C0C0"] ;
16700 -> 25348 ;
35783 [label="gini = 0.0\nsamples = 1187\nvalue = [43960.836, 0.0]\nclass = False", fillcolor="#e58139ff"] ;
16699 -> 35783 ;
35784 [label="AGEIMM <= 3.5\ngini = 0.373\nsamples = 62387\nvalue = [1738189.131, 572346.72]\nclass = False", fillcolor="#e58139ab"] ;
16698 -> 35784 ;
35785 [label="IncTax <= 44747042.0\ngini = 0.462\nsamples = 11240\nvalue = [265765.627, 150513.61]\nclass = False", fillcolor="#e581396f"] ;
35784 -> 35785 ;
35786 [label="(...)", fillcolor="#C0C0C0"] ;
35785 -> 35786 ;
37321 [label="(...)", fillcolor="#C0C0C0"] ;
35785 -> 37321 ;
40134 [label="NOL <= 21.5\ngini = 0.346\nsamples = 51147\nvalue = [1472423.504, 421833.11]\nclass = False", fillcolor="#e58139b6"] ;
35784 -> 40134 ;
40135 [label="(...)", fillcolor="#C0C0C0"] ;
40134 -> 40135 ;
47350 [label="(...)", fillcolor="#C0C0C0"] ;
40134 -> 47350 ;
55823 [label="NOL <= 23.5\ngini = 0.098\nsamples = 15816\nvalue = [555384.41, 30407.875]\nclass = False", fillcolor="#e58139f1"] ;
16697 -> 55823 ;
55824 [label="KOL <= 3.5\ngini = 0.044\nsamples = 13187\nvalue = [477419.811, 11000.418]\nclass = False", fillcolor="#e58139f9"] ;
55823 -> 55824 ;
55825 [label="ETHDER <= 20.5\ngini = 0.086\nsamples = 3401\nvalue = [120305.178, 5667.092]\nclass = False", fillcolor="#e58139f3"] ;
55824 -> 55825 ;
55826 [label="(...)", fillcolor="#C0C0C0"] ;
55825 -> 55826 ;
55837 [label="(...)", fillcolor="#C0C0C0"] ;
55825 -> 55837 ;
56226 [label="Retir <= 250.0\ngini = 0.029\nsamples = 9786\nvalue = [357114.633, 5333.326]\nclass = False", fillcolor="#e58139fb"] ;
55824 -> 56226 ;
56227 [label="(...)", fillcolor="#C0C0C0"] ;
56226 -> 56227 ;
56232 [label="(...)", fillcolor="#C0C0C0"] ;
56226 -> 56232 ;
56707 [label="NOL <= 24.5\ngini = 0.319\nsamples = 2629\nvalue = [77964.599, 19407.457]\nclass = False", fillcolor="#e58139c0"] ;
55823 -> 56707 ;
56708 [label="gini = 0.0\nsamples = 154\nvalue = [0.0, 5703.46]\nclass = True", fillcolor="#399de5ff"] ;
56707 -> 56708 ;
56709 [label="VisMin <= 1.5\ngini = 0.254\nsamples = 2475\nvalue = [77964.599, 13703.996]\nclass = False", fillcolor="#e58139d2"] ;
56707 -> 56709 ;
56710 [label="(...)", fillcolor="#C0C0C0"] ;
56709 -> 56710 ;
56819 [label="(...)", fillcolor="#C0C0C0"] ;
56709 -> 56819 ;
57306 [label="NOL <= 57.0\ngini = 0.496\nsamples = 126045\nvalue = [2546607.768, 2121659.474]\nclass = False", fillcolor="#e581392b"] ;
16696 -> 57306 ;
57307 [label="GENSTAT <= 2.5\ngini = 0.5\nsamples = 114486\nvalue = [2118501.176, 2121659.474]\nclass = True", fillcolor="#399de500"] ;
57306 -> 57307 ;
57308 [label="POBF <= 5.5\ngini = 0.491\nsamples = 89809\nvalue = [1443544.572, 1882679.73]\nclass = True", fillcolor="#399de53b"] ;
57307 -> 57308 ;
57309 [label="POB <= 13.5\ngini = 0.464\nsamples = 65561\nvalue = [888286.348, 1539868.725]\nclass = True", fillcolor="#399de56c"] ;
57308 -> 57309 ;
57310 [label="(...)", fillcolor="#C0C0C0"] ;
57309 -> 57310 ;
72245 [label="(...)", fillcolor="#C0C0C0"] ;
57309 -> 72245 ;
75150 [label="POBF <= 7.0\ngini = 0.472\nsamples = 24248\nvalue = [555258.225, 342811.006]\nclass = False", fillcolor="#e5813962"] ;
57308 -> 75150 ;
75151 [label="(...)", fillcolor="#C0C0C0"] ;
75150 -> 75151 ;
79560 [label="(...)", fillcolor="#C0C0C0"] ;
75150 -> 79560 ;
83527 [label="FOL <= 1.5\ngini = 0.386\nsamples = 24677\nvalue = [674956.604, 238979.744]\nclass = False", fillcolor="#e58139a5"] ;
57307 -> 83527 ;
83528 [label="ETHDER <= 34.0\ngini = 0.44\nsamples = 17578\nvalue = [438377.907, 212606.727]\nclass = False", fillcolor="#e5813983"] ;
83527 -> 83528 ;
83529 [label="(...)", fillcolor="#C0C0C0"] ;
83528 -> 83529 ;
87404 [label="(...)", fillcolor="#C0C0C0"] ;
83528 -> 87404 ;
89573 [label="GENSTAT <= 3.5\ngini = 0.18\nsamples = 7099\nvalue = [236578.697, 26373.017]\nclass = False", fillcolor="#e58139e3"] ;
83527 -> 89573 ;
89574 [label="(...)", fillcolor="#C0C0C0"] ;
89573 -> 89574 ;
89923 [label="(...)", fillcolor="#C0C0C0"] ;
89573 -> 89923 ;
90708 [label="gini = 0.0\nsamples = 11559\nvalue = [428106.592, 0.0]\nclass = False", fillcolor="#e58139ff"] ;
57306 -> 90708 ;
}